#include <iostream>
#include <cmath>
#include <cstring>

#define INPUT_SIZE 784  // 28 * 28
#define LAYER1_SIZE 16
#define LAYER2_SIZE 16
#define OUTPUT_SIZE 10

float relu(float x) {
    return x > 0 ? x : 0;
}

void softmax(float* x, int size) {
    float max = x[0];
    for (int i = 1; i < size; ++i) {
        if (x[i] > max) max = x[i];
    }
    float sum = 0;
    for (int i = 0; i < size; ++i) {
        x[i] = exp(x[i] - max);
        sum += x[i];
    }
    for (int i = 0; i < size; ++i) {
        x[i] /= sum;
    }
}

void dense1(float* input, float* output, float weights[INPUT_SIZE][LAYER1_SIZE], float* bias) {

    for (int i = 0; i < LAYER1_SIZE; ++i) {
        output[i] = bias[i];
        for (int j = 0; j < INPUT_SIZE; ++j) {
            output[i] += input[j] * weights[j][i];
        }
    }
}

void dense2(float* input, float* output, float weights[LAYER1_SIZE][LAYER2_SIZE], float* bias) {
    for (int i = 0; i < LAYER2_SIZE; ++i) {
        output[i] = bias[i];
        for (int j = 0; j < LAYER1_SIZE; ++j) {
            output[i] += input[j] * weights[j][i];
        }
    }
}

void dense3(float* input, float* output, float weights[LAYER2_SIZE][OUTPUT_SIZE], float* bias) {
    for (int i = 0; i < OUTPUT_SIZE; ++i) {
        output[i] = bias[i];
        for (int j = 0; j < LAYER2_SIZE; ++j) {
            output[i] += input[j] * weights[j][i];
        }
    }
}

int lenet(float inputs[784]) {
    // Input layer
//    float inputs[INPUT_SIZE] = { /* Initialize with input data */ };

    // Weights and biases for Dense layers
    static float dense1_weights[INPUT_SIZE][LAYER1_SIZE] = {{-0.013316541910171509,-0.01208697259426117,-0.03741677105426788,-0.016941234469413757,0.07601964473724365,0.05468359589576721,0.0857420265674591,0.02296242117881775,-0.029696404933929443,0.021648980677127838,-0.011332117021083832,0.04751867055892944,-0.061360761523246765,0.027528777718544006,0.038580313324928284,-0.03833123296499252},
    		{0.006144493818283081,-0.0336567722260952,0.06569632887840271,-0.0714237242937088,-0.07122926414012909,0.03438296914100647,-0.061165906488895416,-0.021247178316116333,-0.07458721101284027,0.039235904812812805,-0.019129864871501923,-0.06795607507228851,0.054184168577194214,0.016095012426376343,0.07452724874019623,-0.0003869980573654175},
    		{0.009576179087162018,0.04128238558769226,0.0008943527936935425,-0.033610086888074875,0.06785370409488678,-0.08347111940383911,0.055069684982299805,-0.04306590557098389,0.04381585121154785,-0.015353038907051086,0.06918935477733612,-0.08607519418001175,0.03456857055425644,0.06913349032402039,0.04345498979091644,0.06395471096038818},
    		{0.016966961324214935,-0.053438711911439896,-0.06731823086738586,0.023548446595668793,-0.0035085976123809814,0.04665204882621765,0.053199902176856995,-0.027397971600294113,0.08484166860580444,0.028468839824199677,0.08580893278121948,0.02888675034046173,-0.035232413560152054,-0.03346765786409378,-0.07845080643892288,-0.07121260464191437},
    		{0.07882176339626312,-0.05539249628782272,-0.03440268710255623,-0.04870046675205231,0.020240753889083862,0.030827566981315613,0.05781112611293793,0.07799145579338074,-0.014202512800693512,0.02743038535118103,0.006962865591049194,0.06974178552627563,0.03974522650241852,0.03380507975816727,0.0857844203710556,-0.06020810455083847},
    		{0.05696791410446167,0.02818989008665085,0.057365745306015015,0.07329018414020538,0.06169706583023071,0.06347900629043579,-0.08381050080060959,-0.07845823466777802,-0.07275762408971786,0.08194237947463989,-0.03362482786178589,0.027666985988616943,0.07435961067676544,0.06250321865081787,0.01361413300037384,0.05068916082382202},
    		{0.02740195393562317,0.07360407710075378,0.05353674292564392,0.0747111588716507,0.026915766298770905,-0.011902175843715668,-0.05952772498130798,-0.018053874373435974,-0.050239335745573044,-0.0362996906042099,0.010259777307510376,-0.007643222808837891,-0.02496945485472679,0.03874315321445465,-0.04241901636123657,-0.08045464009046555},
    		{0.024656392633914948,-0.015643775463104248,0.05132366716861725,-0.0822126641869545,0.006270095705986023,0.012479066848754883,-0.0027018487453460693,0.05076533555984497,-0.009982854127883911,0.037130944430828094,0.007541388273239136,0.05014483630657196,-0.008186668157577515,0.06508192420005798,-0.0007680729031562805,0.06833872199058533},
    		{-0.04275629669427872,0.018571488559246063,-0.05491270497441292,-0.07444100826978683,-0.02567771077156067,-0.0561676099896431,0.06627985835075378,-0.059479035437107086,-0.02101140469312668,0.0021464675664901733,-0.05646594613790512,0.05105768144130707,-0.015721142292022705,-0.06946529448032379,0.07342427968978882,0.08261726796627045},
    		{-0.0006576105952262878,0.010797999799251556,0.0039385780692100525,-0.03005879372358322,0.033374786376953125,-0.07559950649738312,-0.06797432899475098,-0.026653766632080078,0.001900598406791687,0.06116151809692383,-0.0462811179459095,0.05857031047344208,-0.06455257534980774,0.020013421773910522,-0.017350926995277405,-0.020749159157276154},
    		{0.0318051278591156,0.06221449375152588,-0.026992201805114746,0.009486295282840729,-0.029909346252679825,0.07137714326381683,0.03277178853750229,-0.020250268280506134,-0.03003668040037155,-0.00515369325876236,-0.04010168835520744,-0.042697738856077194,0.031488269567489624,0.011459842324256897,-0.07204172760248184,0.05427205562591553},
    		{-0.0035809874534606934,0.0077770426869392395,-0.03874928876757622,-0.05223534256219864,0.05549715459346771,-0.03194305673241615,-0.05808796361088753,-0.07265639305114746,0.014469817280769348,0.0022744834423065186,-0.07769639790058136,-0.08144433796405792,-0.07303143292665482,-0.025819603353738785,-0.07692091166973114,0.0361378937959671},
    		{0.9091517925262451,0.026300586760044098,0.07272140681743622,0.0003868713974952698,-0.045876093208789825,-1.3548542261123657,0.023175034672021866,-0.03542007878422737,0.08182702958583832,0.07154059410095215,3.48722505569458,0.0009176060557365417,0.05650298297405243,-0.007848754525184631,0.07305251061916351,-0.036388661712408066},
    		{0.9911373853683472,-0.0434226356446743,-0.05809194594621658,-0.016636602580547333,0.07940296828746796,-1.3558571338653564,0.3508125841617584,-0.06439468264579773,0.07764220237731934,0.05791012942790985,2.0094656944274902,0.041124969720840454,0.08378717303276062,0.0355420857667923,-0.033298492431640625,-0.04272926598787308},
    		{0.940746009349823,-5.6102871894836426e-05,-0.021532654762268066,-0.07529947906732559,0.07909969985485077,-0.7460556030273438,0.9340983629226685,0.030278772115707397,-0.008665159344673157,-0.014261044561862946,0.9586120843887329,0.0342358723282814,-0.0007824450731277466,-0.010604389011859894,-0.08276131004095078,-0.07908753305673599},
    		{0.8430564403533936,-0.06046481803059578,-0.03562209755182266,-0.05785185843706131,0.0167381688952446,-0.6307188868522644,0.9913122057914734,0.05781729519367218,0.00815609097480774,-0.04779203236103058,0.9834626317024231,-0.027625981718301773,-0.062506765127182,0.00950564444065094,-0.07268591970205307,-0.08563032001256943},
    		{-0.07274486869573593,0.053541138768196106,-0.059007979929447174,0.06785471737384796,-0.05466024577617645,0.02328202873468399,0.006612308323383331,0.037281282246112823,0.00041650235652923584,-0.03566901013255119,-0.02030424028635025,-0.001103825867176056,0.029841989278793335,-0.0178668275475502,0.05628049373626709,0.07605251669883728},
    		{0.01464436948299408,0.06916578114032745,-0.08108837902545929,0.020406797528266907,-0.08278998732566833,0.07574726641178131,-0.037621717900037766,-0.06125496327877045,0.024069897830486298,-0.07946212589740753,-0.06753554940223694,-0.0006935521960258484,-0.07400055229663849,0.07661309838294983,0.006879530847072601,0.007878363132476807},
    		{-0.08169227838516235,0.05555078387260437,-0.08634037524461746,-0.05241134390234947,-0.049702394753694534,-0.0018072500824928284,0.07624484598636627,-0.013194017112255096,-0.06754797697067261,-0.07481462508440018,-7.450580596923828e-07,-0.036666642874479294,-0.04409942403435707,0.06224986910820007,-0.06788317114114761,-0.009691096842288971},
    		{-0.07652801275253296,0.05320827662944794,-0.03725576028227806,-0.0656491369009018,0.037221960723400116,-0.006732620298862457,0.044045329093933105,0.05417013168334961,0.08537514507770538,0.05619700253009796,0.012377835810184479,-0.013824261724948883,0.06406860053539276,-0.008652649819850922,0.00806177407503128,-0.0286468043923378},
    		{0.009557098150253296,0.021949201822280884,-0.049443554133176804,0.03326623886823654,0.05344051122665405,0.08617757260799408,0.05186787247657776,-0.07585692405700684,0.05775021016597748,-0.05675945430994034,0.021630503237247467,0.03165619820356369,0.06798847019672394,-0.0155143141746521,0.050887152552604675,0.04730899631977081},
    		{0.030141979455947876,-0.04670398309826851,-0.03579029440879822,-0.08066398650407791,0.005150347948074341,-0.0379147082567215,0.06755875051021576,0.01645386964082718,-0.035309161990880966,0.026949934661388397,0.04304412007331848,-0.07184072583913803,0.05491708219051361,0.03072495013475418,0.056663647294044495,0.014468885958194733},
    		{0.0045909881591796875,-0.0727909728884697,-0.058473601937294006,-0.08177608996629715,0.08117993175983429,0.04384353756904602,0.02431391179561615,0.060734376311302185,0.03876739740371704,0.0060022324323654175,0.07860900461673737,-0.051615335047245026,-0.030472014099359512,-0.00520816445350647,0.0653001070022583,0.039158210158348083},
    		{-0.06123119592666626,-0.0708552747964859,-0.04053252190351486,-0.08058027923107147,-0.04955137521028519,-0.056716710329055786,-0.060788802802562714,-0.0021344944834709167,0.0776008814573288,-0.049376923590898514,0.0767461359500885,-0.04002087190747261,0.017405621707439423,-0.05391903594136238,0.04872363805770874,0.0804632306098938},
    		{0.018858887255191803,0.0018211230635643005,-0.0374012216925621,0.004815690219402313,0.005970805883407593,0.0316581204533577,-0.060162514448165894,0.05305472016334534,0.032356008887290955,-0.07784316688776016,0.028539828956127167,-0.05919302627444267,-0.07998035848140717,0.05604255199432373,0.011795863509178162,0.06409166753292084},
    		{0.06598366796970367,-0.023763030767440796,-0.05340458080172539,-0.043740857392549515,0.08631710708141327,-0.03153958171606064,0.05937059223651886,-0.04361773654818535,0.02700946480035782,-8.767098188400269e-05,0.02812090516090393,-0.03612751141190529,-0.05006628856062889,0.05260142683982849,0.035808317363262177,0.0053377896547317505},
    		{0.03403212130069733,-0.05785173177719116,0.06169041991233826,-0.04831373691558838,0.06089022755622864,0.00823676586151123,-0.05836441367864609,-0.020259767770767212,0.0661875456571579,0.019520826637744904,0.014934919774532318,0.0673130601644516,0.03163480758666992,0.014278888702392578,0.08073775470256805,-0.06182130426168442},
    		{0.012962140142917633,-0.02898178994655609,-0.014660246670246124,-0.060877688229084015,-0.019329756498336792,0.04202675819396973,-0.017045915126800537,-0.028054378926753998,-0.06350039690732956,-0.06245283782482147,-0.05006236582994461,-0.046686843037605286,0.016893066465854645,-0.018312282860279083,0.06756238639354706,0.03835243731737137},
    		{-0.08096864074468613,0.002055250108242035,0.06202098727226257,-0.06922398507595062,0.031013377010822296,-0.07434650510549545,-0.05200987309217453,0.0499078631401062,0.04206930100917816,0.08039870858192444,0.02685130387544632,-0.016478605568408966,0.0818934440612793,-0.03077361360192299,0.07493126392364502,0.08105674386024475},
    		{-0.0736987292766571,-0.04233473166823387,-0.04633224010467529,-0.07470670342445374,-0.06675225496292114,-0.034492362290620804,0.06970895826816559,-0.024644605815410614,-0.03703631833195686,-0.06215745210647583,0.028711475431919098,0.018098905682563782,0.08383709192276001,-0.04614292457699776,-0.04556569829583168,-0.01182633638381958},
    		{-0.0741509273648262,0.0663805603981018,0.07991959154605865,-0.08157344907522202,-0.0778818130493164,0.03886081278324127,-0.029577456414699554,-0.03512989729642868,-0.0575556680560112,-0.0559268556535244,0.010085470974445343,0.010177060961723328,-0.049294665455818176,-0.05491355061531067,-0.014093324542045593,-0.05036357417702675},
    		{-0.010209396481513977,-0.0432540699839592,0.080497145652771,-0.06929154694080353,0.007534697651863098,-0.08258082717657089,-0.015428178012371063,0.0242391899228096,0.04097725450992584,-0.02733185887336731,-0.011847168207168579,0.06771743297576904,0.025945842266082764,0.031508669257164,0.05995813012123108,-0.013839878141880035},
    		{0.059991613030433655,-0.08638989180326462,0.0696541965007782,0.02821402996778488,0.42194294929504395,0.0474492609500885,-0.37161585688591003,-0.008438199758529663,-0.010407842695713043,0.05874811112880707,1.884020209312439,0.024300552904605865,-0.019473649561405182,0.02883942425251007,0.029944218695163727,-0.0519072525203228},
    		{0.21378888189792633,0.00957072526216507,0.0406634658575058,-0.6940834522247314,0.6463655233383179,-0.03779792785644531,-1.4585371017456055,-0.03729478269815445,-0.07141046971082687,-0.040336865931749344,2.8152616024017334,0.007529065012931824,-0.16258522868156433,-0.06973642110824585,0.023268088698387146,-0.04102242738008499},
    		{1.220310926437378,0.055986955761909485,-0.06532938778400421,-2.4876441955566406,0.7273645401000977,-0.07369889318943024,-3.465471029281616,-0.06276118755340576,-0.029385123401880264,0.053922608494758606,3.690901041030884,0.0032196268439292908,-1.5142241716384888,0.03872515261173248,0.05550698935985565,0.07614259421825409},
    		{1.453560709953308,-0.6974385976791382,-0.054088760167360306,-2.6139814853668213,1.3671971559524536,1.6237823963165283,-3.870140790939331,-0.06188391149044037,0.08184753358364105,-0.5970160365104675,4.466512680053711,0.08180750906467438,2.133732557296753,0.06987263262271881,-0.016214266419410706,0.039022572338581085},
    		{1.2316128015518188,-0.7515053153038025,-0.043981876224279404,-2.0894863605499268,0.7511249780654907,-1.8388464450836182,-2.1314682960510254,0.02667984366416931,-0.06800856441259384,-1.2447335720062256,3.593550443649292,0.0717339962720871,2.85152268409729,-0.007314637303352356,-0.9337109327316284,-0.0481850691139698},
    		{0.34323567152023315,-0.2574711740016937,-0.014999344944953918,-1.2505168914794922,-0.08843420445919037,-2.0849969387054443,0.22629114985466003,0.020259931683540344,-0.15143051743507385,-0.73072749376297,1.227015495300293,-0.02384836971759796,2.7957253456115723,0.07124175131320953,-0.9206937551498413,-0.051811110228300095},
    		{0.22703583538532257,-0.11986567080020905,0.048893898725509644,-0.8156555891036987,-0.06641730666160583,-1.554790735244751,-0.03661177307367325,0.06493726372718811,-0.07576931267976761,-0.8058940768241882,0.7538496851921082,0.01280181109905243,2.034468173980713,-0.05418902635574341,-0.6377426385879517,-0.9210652112960815},
    		{5.263309478759766,-0.17491507530212402,0.0861000120639801,-0.9932202100753784,-0.11517530679702759,0.002998761599883437,-1.995690107345581,-0.4097026288509369,-0.1854427456855774,-0.7758150100708008,-3.673760414123535,0.08643323183059692,1.919772744178772,0.060848385095596313,0.8369368314743042,-1.0899263620376587},
    		{6.669466018676758,0.04543623328208923,-0.05979389324784279,-3.4522485733032227,0.36131805181503296,-3.0740716457366943,-3.1806564331054688,-0.35515156388282776,-0.1472054123878479,-0.493674635887146,1.8163963556289673,-0.006856322288513184,1.7596346139907837,-0.06988708674907684,0.7065427899360657,-0.5125660300254822},
    		{3.2363438606262207,0.00775282084941864,-0.004784867167472839,-2.019010305404663,0.6899690628051758,-5.626769065856934,-4.381889343261719,-1.4185858964920044,-0.17706775665283203,0.46384477615356445,1.525294542312622,-0.07923326641321182,1.4353693723678589,0.02942834049463272,-0.8746500015258789,-0.5452477335929871},
    		{0.9742609262466431,0.002946794033050537,-0.058095745742321014,-0.3068425953388214,1.8354202508926392,-3.3423666954040527,-0.08472100645303726,-3.442382574081421,-4.866289138793945,0.199046790599823,-6.974255561828613,-2.4608089923858643,-3.7646636962890625,0.01203002780675888,6.254526138305664,-0.13540539145469666},
    		{-0.02504092827439308,-0.043761733919382095,-0.02905261144042015,-1.6846492290496826,3.458913803100586,-0.655275821685791,-5.612178802490234,-0.6152613162994385,-4.385053634643555,-1.1927318572998047,-3.117847442626953,-2.3504326343536377,-1.0064009428024292,0.013971254229545593,5.624960422515869,1.0874258279800415},
    		{-1.0958608388900757,0.06183499097824097,0.03484797477722168,-1.5981714725494385,2.9689507484436035,2.307570695877075,-7.168212890625,-0.5532864928245544,-4.467460632324219,-0.010608600452542305,0.8554223775863647,-2.391256809234619,4.296886444091797,-0.007506251335144043,0.4828731119632721,0.8473479747772217},
    		{1.0016270875930786,0.01681485027074814,0.026682943105697632,-1.5531792640686035,2.898005962371826,-0.6556926965713501,-5.217134952545166,-1.50418221950531,-0.004379160702228546,-0.4040202498435974,6.198113441467285,0.012436456978321075,4.249927997589111,-0.07401864230632782,-3.4064159393310547,0.9386440515518188},
    		{1.1943389177322388,0.04414300620555878,0.08158674836158752,-0.481304407119751,1.5315356254577637,-0.7220175862312317,-0.24222755432128906,-0.20843322575092316,-0.07378959655761719,-1.4198627471923828,5.045594215393066,-0.08539202809333801,0.5311214923858643,-0.060496263206005096,0.06180194392800331,0.07086454331874847},
    		{1.1080249547958374,-0.08363338559865952,-0.07629019021987915,-0.43785980343818665,0.7461538314819336,-3.6494622230529785,-3.097597599029541,0.5149607062339783,0.2661755681037903,-1.5135674476623535,8.318986892700195,-0.8635491132736206,-0.8567226529121399,-0.03532423451542854,0.0504278689622879,-0.061758704483509064},
    		{0.43384242057800293,-0.07779284566640854,0.07351300120353699,-2.079207181930542,0.8025655746459961,-3.5528526306152344,-6.2392497062683105,0.17587290704250336,0.576560914516449,-0.8265352845191956,9.803083419799805,-0.9585850834846497,-0.4450700283050537,0.008217625319957733,-0.0632736012339592,0.009956663474440575},
    		{0.24142581224441528,-0.07480374723672867,-0.08109387010335922,-2.6840767860412598,0.25135791301727295,-0.7768144607543945,-4.042874813079834,0.2391199767589569,0.4797821044921875,-0.2610166668891907,5.321191787719727,-0.8536707162857056,0.06765532493591309,0.07152357697486877,0.08632630109786987,0.051328159868717194},
    		{0.16742967069149017,0.001980915665626526,-0.01948261260986328,-3.2060277462005615,0.14112134277820587,-0.1618952751159668,-3.7721171379089355,0.48913225531578064,0.38918453454971313,-0.1273617148399353,4.177569389343262,-0.018330596387386322,-0.07546977698802948,-0.03777242824435234,0.06999461352825165,-0.07362886518239975},
    		{0.025132983922958374,-0.02011079341173172,0.01105983555316925,-3.877075433731079,0.8192469477653503,-0.06978394836187363,-3.5269365310668945,0.7097665667533875,-0.014758244156837463,0.004275321960449219,3.3024258613586426,0.044545188546180725,0.04888324439525604,0.07583947479724884,0.05976153910160065,-0.9788604974746704},
    		{-0.055730827152729034,0.07133132219314575,-0.048855509608983994,0.03606323152780533,0.06585520505905151,-0.051479268819093704,-0.020983465015888214,-0.0802619531750679,0.025262758135795593,-0.0729464516043663,-0.03941412270069122,0.04876655340194702,0.07822062075138092,0.041562214493751526,0.08602611720561981,-0.038073696196079254},
    		{0.010435491800308228,0.04367084801197052,-0.042343031615018845,0.04943445324897766,-0.040889088064432144,-0.02341555804014206,-0.02178049087524414,-0.06501182168722153,0.0746060460805893,0.040028393268585205,-0.03119511529803276,0.05751408636569977,0.015849553048610687,0.08527058362960815,0.02199701964855194,0.06562237441539764},
    		{-0.06576317548751831,-0.08206447213888168,0.006242178380489349,0.07941558957099915,-0.04150531440973282,-0.04654683172702789,0.02660689502954483,-0.07488927245140076,-0.05517583712935448,-0.010388724505901337,0.08060573041439056,-0.052934639155864716,0.0831407755613327,0.07866095006465912,0.038409098982810974,-0.08104468882083893},
    		{0.004404477775096893,-0.06756983697414398,-0.04287115857005119,-0.08609975129365921,0.05620989203453064,-0.0325438417494297,0.06390717625617981,-0.010069280862808228,0.0826316624879837,0.045048803091049194,0.05929465591907501,-0.01220790296792984,-0.03928476199507713,-0.005403369665145874,0.0751199722290039,-0.08461398631334305},
    		{0.07623721659183502,0.007725566625595093,0.0752830058336258,0.023237966001033783,0.041240349411964417,0.010385915637016296,0.007691584527492523,-0.043345000594854355,-0.0025287196040153503,-0.024473004043102264,0.055605724453926086,0.021460987627506256,0.008025474846363068,-0.03231768682599068,0.04271359741687775,-0.05095329135656357},
    		{-0.08016051352024078,0.03655927628278732,-0.021967165172100067,0.0654582530260086,-0.01770414412021637,-0.04661932587623596,-0.014723822474479675,0.04279521107673645,-0.035099443048238754,-0.024518221616744995,0.03260438144207001,0.015354439616203308,0.07634790241718292,-0.005532123148441315,0.02593378722667694,-0.022164680063724518},
    		{0.0771140307188034,0.024110160768032074,0.014930687844753265,-0.05123903229832649,0.8166201710700989,0.052254870533943176,-1.5547988414764404,0.07333000004291534,0.07546162605285645,0.03798067569732666,1.3679112195968628,-0.05241274833679199,0.028277620673179626,0.07507491111755371,-0.08096903562545776,-0.034333229064941406},
    		{7.405981540679932,-0.789513111114502,-0.007366962730884552,-2.7912704944610596,2.542902708053589,0.03564924746751785,-4.6649041175842285,0.08492060005664825,-0.8838086724281311,0.07746727764606476,3.6238808631896973,-0.023825079202651978,0.05544479191303253,-0.032332904636859894,0.04990282654762268,0.05882816016674042},
    		{8.000548362731934,-0.9388946890830994,0.020386502146720886,-2.786216974258423,0.37964367866516113,-0.0819808766245842,-5.070729732513428,-0.0006676390767097473,-0.055144619196653366,-0.5549632906913757,3.5023910999298096,0.0008105635643005371,0.03455093502998352,0.08149947226047516,-0.05635099858045578,0.020955368876457214},
    		{0.16316048800945282,0.031870171427726746,-0.039478808641433716,-1.6313717365264893,0.9006478190422058,-3.5157434940338135,-0.524773359298706,-0.01459328830242157,-0.08198115974664688,0.4381881654262543,8.047460556030273,0.06931908428668976,0.9084598422050476,-0.025045912712812424,0.05920910835266113,-0.04738285765051842},
    		{-1.0203086137771606,-1.9569263458251953,0.03348960727453232,-1.9236586093902588,0.9361350536346436,-1.986415982246399,-3.9119715690612793,-0.06661447882652283,-1.9523420333862305,2.754392147064209,7.997677803039551,-0.8887830972671509,3.1800966262817383,-0.03797983378171921,-0.010947465896606445,-0.019249489530920982},
    		{1.8692094087600708,-2.29205584526062,-0.0729319155216217,-2.9429123401641846,2.433777332305908,-1.2856577634811401,-3.771204948425293,-0.6388343572616577,-2.9193036556243896,0.9161754846572876,8.342033386230469,-0.444931298494339,-0.11113718152046204,0.05666573345661163,-0.7092050313949585,0.011427048593759537},
    		{-0.17979279160499573,-0.7965211272239685,-0.018487349152565002,-3.6247711181640625,0.2165542095899582,0.0908658429980278,-1.1230182647705078,-1.3818129301071167,2.2579121589660645,2.1211352348327637,7.0715012550354,-0.4416787028312683,0.7222036719322205,0.017769023776054382,-0.9175933003425598,-0.1376938372850418},
    		{-2.5628161430358887,-1.1649177074432373,-0.0818941742181778,-7.692591667175293,-2.855783462524414,2.741600275039673,-0.4228074848651886,-4.472850799560547,0.40501758456230164,0.909387469291687,5.171868324279785,-1.0435941219329834,2.479459285736084,-0.040362488478422165,-0.6283604502677917,-0.7180379033088684},
    		{-2.7363789081573486,-0.3131587505340576,0.07662975788116455,-3.2562501430511475,-2.32417368888855,-0.27360981702804565,-2.4758472442626953,-0.5102761387825012,-2.7978601455688477,-0.9905110597610474,4.800323486328125,-1.28188157081604,0.6438146829605103,-0.08106780797243118,-0.4725765287876129,-3.0979299545288086},
    		{-1.595773458480835,0.5855772495269775,-0.06867226213216782,-4.014371871948242,-0.04633152484893799,-1.3418076038360596,-0.8666843771934509,-0.14614054560661316,-2.4678845405578613,-2.4841859340667725,8.877277374267578,-1.9249415397644043,2.449164867401123,0.02908756583929062,-0.16766172647476196,-1.4502383470535278},
    		{-1.879271149635315,0.1446506828069687,-0.07120558619499207,-5.918982028961182,0.2691013216972351,4.082728385925293,-2.1550843715667725,-3.7048609256744385,-2.2523813247680664,-2.7516987323760986,5.709781169891357,1.577211856842041,3.4854464530944824,-0.009307198226451874,-1.7292290925979614,-0.9640654921531677},
    		{-2.778944730758667,-0.8484610319137573,0.06180006265640259,-3.138131618499756,1.1366647481918335,2.859928846359253,-2.1658246517181396,-3.1063785552978516,-2.3714990615844727,-0.4829622805118561,3.6529150009155273,0.5997599363327026,-2.6127500534057617,0.059725090861320496,-4.593101978302002,-1.015330195426941},
    		{-4.664552211761475,-1.6211750507354736,-0.01873786747455597,-4.202846050262451,-0.4644666314125061,-0.6576939225196838,-1.9411629438400269,-5.114761829376221,2.2570860385894775,-0.2176174819469452,6.0412139892578125,0.10215591639280319,-1.2916271686553955,-0.06535779684782028,1.45941162109375,0.1811038702726364},
    		{-4.407485008239746,-1.3729900121688843,0.016303718090057373,-2.463278293609619,1.9238460063934326,1.6776429414749146,-1.2716702222824097,-6.183142185211182,2.549520492553711,-0.9019877314567566,-0.02364157885313034,-1.3879948854446411,-1.4229497909545898,0.05549889802932739,5.602328300476074,0.2469428926706314},
    		{-2.874987840652466,0.184262216091156,0.07990652322769165,-5.559131145477295,6.575532913208008,-1.0799108743667603,-1.067810297012329,-4.561375141143799,0.29615268111228943,-1.056459903717041,0.7660456299781799,-1.5042630434036255,-0.5493407845497131,0.2091398388147354,3.056504726409912,0.27472710609436035},
    		{0.6031179428100586,0.797779381275177,-0.033424217253923416,-7.150743007659912,5.6564812660217285,-2.78240704536438,-0.12017980962991714,-0.6872608065605164,-2.162236213684082,-1.244763731956482,3.428335428237915,-2.200779676437378,-0.8789820075035095,0.20596466958522797,-3.9258720874786377,-0.05077109858393669},
    		{-0.8124542236328125,0.24857768416404724,-0.06951925158500671,-2.197887420654297,2.8394551277160645,-2.1073503494262695,-1.3744083642959595,0.5478448271751404,-0.9396833777427673,-2.162569761276245,3.3525068759918213,-1.313738465309143,-1.756969928741455,0.2379448413848877,-3.097156524658203,-0.28806692361831665},
    		{-0.1371481865644455,-0.05241367965936661,-0.06269670277833939,-2.1214957237243652,3.7995214462280273,-3.763934373855591,-1.0839816331863403,-0.2851596176624298,0.5181372165679932,-3.287790060043335,3.1710894107818604,-0.3256922662258148,-9.095616340637207,-0.040080729871988297,-3.4796323776245117,-0.43684762716293335},
    		{0.5474768280982971,-0.06244073808193207,-0.04069064185023308,-1.715592384338379,2.354811906814575,-1.2182741165161133,-0.9998123645782471,-0.7544155716896057,1.9513118267059326,-1.0985840559005737,4.313011646270752,-0.3345485329627991,-8.682926177978516,0.024860888719558716,-1.0994975566864014,-0.11726359277963638},
    		{0.9255216717720032,-0.07096916437149048,-0.047455865889787674,-0.26076045632362366,1.5332273244857788,-2.856982946395874,-3.132124185562134,-2.206157684326172,0.7832433581352234,-0.5451427102088928,7.237113952636719,-0.6519726514816284,-2.6321377754211426,-0.06911149621009827,-2.227457284927368,-0.17173455655574799},
    		{0.3936815559864044,0.04631847143173218,-0.00935208797454834,-2.266745090484619,1.469997525215149,-5.033727645874023,-3.1211740970611572,-3.212449789047241,-0.06440165638923645,-2.759277582168579,8.192850112915039,-0.7087282538414001,-2.4563825130462646,0.06652592122554779,-1.15285062789917,-0.31933942437171936},
    		{-1.4217442274093628,0.055541589856147766,-0.03721335157752037,-2.947770118713379,2.069610595703125,-3.2845239639282227,-1.9848182201385498,-3.3401355743408203,3.0412416458129883,-2.2124040126800537,5.034350395202637,-0.008238806389272213,0.09498932212591171,0.056208059191703796,-0.2524387538433075,-0.45336127281188965},
    		{-1.7014635801315308,-0.0544574037194252,-0.08351720124483109,-1.5803226232528687,1.7428900003433228,-0.7141562104225159,-0.6551233530044556,-3.7950873374938965,-0.9310944080352783,-0.843043327331543,2.4232563972473145,0.022541167214512825,3.003180503845215,0.011965975165367126,-0.23291197419166565,0.00046993792057037354},
    		{-1.293906569480896,-0.0015881136059761047,-0.06540962308645248,0.05736926198005676,-0.6475234627723694,2.6092357635498047,-1.3830840587615967,-3.9151060581207275,0.0004818961024284363,2.3336374759674072,-0.9206264019012451,-0.13583405315876007,-0.01978433132171631,0.021061889827251434,-0.026060746982693672,0.07568798959255219},
    		{0.06416758894920349,0.055357903242111206,-0.033726517111063004,0.06362377107143402,0.01096297800540924,-0.08245114237070084,-0.08531918376684189,0.016752824187278748,0.0496731698513031,-0.03692318871617317,0.0740928053855896,-0.04595150053501129,-0.08314494788646698,0.04634846746921539,0.023341864347457886,-0.06905500590801239},
    		{-0.034105878323316574,0.06120184063911438,0.010729469358921051,-0.08004112541675568,-0.030187591910362244,-0.06501506268978119,0.0829097330570221,0.052957117557525635,-0.06802776455879211,0.0033463463187217712,-0.06697089225053787,0.04947778582572937,-0.02556084468960762,0.0657913088798523,0.07870104908943176,-0.08368904888629913},
    		{0.05046619474887848,-0.07050403952598572,0.013751253485679626,-0.01747310161590576,0.08154134452342987,-0.06675247848033905,-0.03149256482720375,0.0364229753613472,-0.022875413298606873,-0.07586994767189026,0.0013095587491989136,-0.06877504289150238,0.04402880370616913,0.07799741625785828,0.04402075707912445,-0.047087036073207855},
    		{0.08526664972305298,0.06837925314903259,-0.019548989832401276,0.042948171496391296,0.009072169661521912,0.07346054911613464,-0.015674106776714325,-0.06430111080408096,-0.02261669933795929,0.059129491448402405,-0.03492682799696922,0.002252228558063507,-0.06090298295021057,-0.07882945984601974,-0.04503486678004265,0.05346024036407471},
    		{0.023673132061958313,0.054016366600990295,0.041292399168014526,-0.03611293435096741,0.8315478563308716,-0.8513647317886353,-1.7452701330184937,0.9549936652183533,0.016972536221146584,-0.6922315359115601,-5.826278209686279,-0.04445423558354378,0.05929121747612953,-0.03671861067414284,5.584524631500244,0.048365622758865356},
    		{6.972082614898682,-0.8121146559715271,-0.010519899427890778,-2.911029100418091,2.6287693977355957,0.1754181832075119,-4.933243274688721,0.9998149871826172,-0.8578822612762451,-0.7485226988792419,0.4985876679420471,-0.0046606287360191345,0.63409423828125,-0.07708805799484253,5.612186908721924,-0.0024124309420585632},
    		{1.6352920532226562,-1.2354695796966553,0.07185643911361694,-5.894679546356201,-0.36403587460517883,1.0179731845855713,-4.774468898773193,-0.07393614947795868,2.5063745975494385,-0.4802476763725281,-1.735325813293457,-0.5397115349769592,0.6422222852706909,0.04444490373134613,0.07208259403705597,0.029570788145065308},
    		{0.2570550739765167,-1.1522228717803955,-0.07779782265424728,-3.55265212059021,-0.7111104130744934,-2.721773386001587,0.8281193375587463,-1.4552286863327026,6.304041862487793,1.1465353965759277,4.12731409072876,0.0024682371877133846,-0.8583685755729675,0.03154928237199783,-2.6433191299438477,-2.934126377105713},
    		{-1.3508867025375366,-2.1349735260009766,-0.03758814558386803,-2.896381378173828,-1.256805419921875,-0.7782768607139587,-4.163866996765137,-1.7680808305740356,4.205855846405029,2.1999495029449463,9.273699760437012,-0.3014961779117584,3.718255043029785,-0.031094171106815338,-0.10155334323644638,-5.4049811363220215},
    		{-2.4560608863830566,-3.5864405632019043,0.04705187678337097,-3.7619645595550537,-0.09850616008043289,-0.18895654380321503,-2.0566771030426025,-0.25165852904319763,3.96103572845459,2.2564163208007812,-0.6957164406776428,0.5474737286567688,2.2927799224853516,0.009454645216464996,-2.7321412563323975,-0.5596834421157837},
    		{-1.0495492219924927,-0.29331791400909424,0.24884125590324402,-9.975081443786621,-0.3844358026981354,1.3200352191925049,-4.849401950836182,-0.4471588432788849,2.2539427280426025,0.7293132543563843,3.3714451789855957,0.5685278177261353,2.891469717025757,0.07108919322490692,-4.975213050842285,-1.652941346168518},
    		{-2.1506409645080566,1.5688132047653198,0.18086916208267212,-8.42740249633789,-1.6597212553024292,3.746142625808716,-4.828234672546387,-0.8211464285850525,0.6882827281951904,-0.250450998544693,7.050570964813232,-2.041703462600708,2.238886833190918,-0.06350283324718475,-1.6038365364074707,-3.5948007106781006},
    		{-1.4789128303527832,1.1565616130828857,0.1937589794397354,-4.508039474487305,-3.350916624069214,2.4592795372009277,-3.4397175312042236,-2.453861713409424,1.8763229846954346,0.21422399580478668,3.7278494834899902,-2.405906915664673,-4.52724027633667,-0.0677763819694519,-1.4212095737457275,-2.6650900840759277},
    		{-1.159429669380188,-1.8270353078842163,-0.06937099993228912,-3.332057237625122,-6.287692070007324,-1.206598162651062,0.4516763687133789,-4.750232696533203,-0.7004231214523315,-1.3172303438186646,0.847844123840332,-1.455844521522522,2.5902607440948486,-0.24405018985271454,-4.233959674835205,-3.0351295471191406},
    		{-1.6507055759429932,-1.3034353256225586,0.0854320153594017,-8.293387413024902,-3.4725050926208496,1.1346442699432373,-2.143251895904541,-3.0274429321289062,1.4441454410552979,-0.952314019203186,0.801947832107544,3.1305441856384277,0.6368022561073303,-0.24905186891555786,-1.9146841764450073,-2.475017786026001},
    		{0.3928348422050476,-4.147838115692139,0.08959682285785675,-10.943488121032715,1.0846489667892456,2.750884771347046,-5.52179479598999,0.33310645818710327,2.090610980987549,-1.4704407453536987,0.888229489326477,-0.2124679535627365,-3.1353871822357178,-0.2028995007276535,-1.906561255455017,-2.5860931873321533},
    		{-0.6312376856803894,-2.323416233062744,0.17383001744747162,-5.754356861114502,-0.43139591813087463,1.1460647583007812,-3.6916792392730713,-2.9018731117248535,5.829010963439941,-3.6888835430145264,1.3208633661270142,-0.3157072067260742,-1.66741144657135,-0.19034366309642792,-8.690279006958008,-3.273087501525879},
    		{-2.829528331756592,-4.229229927062988,0.191669762134552,-5.772388935089111,0.46147799491882324,0.9345372915267944,-3.966722249984741,-0.7878730297088623,1.2236101627349854,-4.843841075897217,0.9517354369163513,-0.9072164297103882,-1.880355954170227,-0.1494721919298172,-0.2348995953798294,-4.7653045654296875},
    		{1.9610410928726196,-4.364577770233154,0.08649683743715286,-5.519011974334717,0.78305584192276,3.3127830028533936,-2.2666938304901123,-2.187098741531372,0.009543501771986485,-4.901871204376221,0.45817500352859497,-0.7704430818557739,-1.8800978660583496,0.09745538234710693,1.8065167665481567,-3.5858592987060547},
    		{-0.060838665813207626,-0.8457931280136108,0.19166342914104462,-2.6031579971313477,-1.6872857809066772,-0.32976534962654114,-2.567640542984009,-5.503617763519287,3.1704020500183105,-3.293461561203003,-1.27460515499115,-2.8189070224761963,-2.149427652359009,0.18847359716892242,-0.6983484625816345,-1.4785447120666504},
    		{-4.046955108642578,-0.45468103885650635,0.1096891313791275,-2.1680710315704346,0.35396701097488403,-2.916189193725586,-2.1247663497924805,1.3742417097091675,1.7293434143066406,-1.9545809030532837,0.10263131558895111,-1.7871254682540894,-3.2648448944091797,0.1721133589744568,-2.6310136318206787,2.896301031112671},
    		{-3.1843960285186768,0.2388812005519867,0.24107033014297485,1.7205986976623535,1.9313828945159912,-3.431286573410034,-1.9631205797195435,-4.01949405670166,0.580281674861908,-2.5051093101501465,1.3844661712646484,-2.038224220275879,-2.169414520263672,0.17264048755168915,-1.3415913581848145,2.6955726146698},
    		{-1.0435694456100464,-0.47993218898773193,-0.05041859671473503,0.9875720143318176,4.117407321929932,-4.170391082763672,-1.5934338569641113,0.594298779964447,2.919736623764038,-0.7355728149414062,-4.6050944328308105,-3.397859811782837,-2.383270263671875,0.2170717716217041,-1.779742956161499,-0.13487809896469116},
    		{-2.359063148498535,-2.604813575744629,-0.07771708816289902,3.7189736366271973,5.5591607093811035,-0.8460853099822998,1.6195074319839478,2.8909053802490234,-1.0452265739440918,-0.5503740906715393,1.238271951675415,-3.3231778144836426,-4.4312744140625,-0.06667309254407883,-3.078090190887451,-1.8762730360031128},
    		{-0.13620659708976746,-1.7944809198379517,0.001317054033279419,2.7092208862304688,1.9711501598358154,-2.436279058456421,1.822304368019104,2.288187265396118,-2.8429195880889893,0.2688712477684021,0.5322617888450623,-2.256643056869507,-1.7028151750564575,0.0844239592552185,0.8756917119026184,-0.3886665403842926},
    		{3.6468801498413086,-0.14426499605178833,-0.05704475939273834,0.3956502676010132,1.833583950996399,-6.198098659515381,-2.8741989135742188,-0.07335319370031357,-2.2012102603912354,-0.011477319523692131,3.9354283809661865,-2.755837917327881,-4.798700332641602,-0.053025901317596436,-0.9704591631889343,0.9025923609733582},
    		{1.265926718711853,-0.05960635840892792,0.004324525594711304,0.6739813685417175,3.936785936355591,-3.3148040771484375,0.006304724141955376,-0.8550936579704285,2.255894899368286,-0.9197667241096497,0.7084739804267883,-4.072588920593262,-2.999600410461426,0.02470293641090393,-1.4094425439834595,0.7217841148376465},
    		{-0.46800315380096436,0.007374413311481476,-0.005882203578948975,0.24982978403568268,2.038461208343506,2.8248705863952637,3.0917389392852783,5.580451011657715,-6.312317848205566,1.7939373254776,-6.940618991851807,-3.327692985534668,-1.0614837408065796,0.02774551510810852,-3.978863000869751,-0.03601593151688576},
    		{-2.0292840003967285,-0.06248971074819565,-0.03386944159865379,0.0536016970872879,1.5420807600021362,1.7125067710876465,3.6319174766540527,-1.9988791942596436,-0.0007809177041053772,1.0209147930145264,4.542906284332275,2.0254039764404297,0.0837046205997467,0.005010813474655151,-3.705613136291504,0.026131033897399902},
    		{0.033230043947696686,0.07193531095981598,0.04691053926944733,-0.07051349431276321,-0.03234029561281204,-0.02857544645667076,-0.08335229009389877,0.037816859781742096,-0.0330938957631588,0.001139216125011444,-0.019796311855316162,-0.0289008729159832,0.018041342496871948,-0.07095319032669067,0.06504954397678375,0.03692469745874405},
    		{-0.06289669871330261,0.03948861360549927,-0.002853378653526306,-0.03066331520676613,0.08373557031154633,-0.07962379604578018,0.031255342066287994,-0.07150408625602722,-0.006117485463619232,0.015076316893100739,0.019309930503368378,-0.05396103486418724,0.026888184249401093,-0.02021927386522293,-0.07855020463466644,0.0027129948139190674},
    		{-0.0791717991232872,-0.06868220865726471,0.08264318108558655,-0.03243793919682503,-0.06268304586410522,-1.1440438032150269,0.05899706482887268,0.03348234295845032,1.7234607934951782,0.049500059336423874,-0.0013426075456663966,0.0809415876865387,-0.039743728935718536,-0.040585730224847794,-0.03402898460626602,-0.052517369389534},
    		{0.6872795224189758,0.0017555058002471924,0.04764355719089508,0.07101462781429291,0.2573542892932892,0.9036995768547058,0.1346897929906845,0.9099061489105225,2.5335819721221924,-0.20246142148971558,-6.466352462768555,-0.07910733669996262,1.083196759223938,0.042857423424720764,5.583073139190674,-0.07883425056934357},
    		{0.9379205703735352,5.159701347351074,-0.006226196885108948,-1.1793208122253418,-1.7092869281768799,-0.4982910752296448,-1.9487895965576172,0.9647817611694336,0.2234078347682953,-2.4285922050476074,-2.6724863052368164,-0.02422475814819336,0.9960504770278931,-0.06349363923072815,5.575700759887695,4.1191253662109375},
    		{-1.8831114768981934,0.6658481955528259,-0.02935633808374405,0.06621737033128738,-5.5861921310424805,-2.005239486694336,1.7209066152572632,-0.07490804046392441,2.5695085525512695,-2.4766809940338135,0.8481878042221069,-0.4932851195335388,-2.8441760540008545,0.012370899319648743,4.526113986968994,4.74609899520874},
    		{-3.9527149200439453,-0.30612725019454956,-0.025867793709039688,1.355668067932129,-7.73942232131958,1.6768277883529663,0.16891872882843018,-3.301863431930542,3.790807008743286,-0.851655125617981,4.7919206619262695,0.024373317137360573,3.0165164470672607,0.00541464239358902,-2.809213876724243,1.0901505947113037},
    		{-4.322549343109131,-0.1962270736694336,0.05660676956176758,-1.4160714149475098,-2.44221568107605,5.4020867347717285,-2.6400814056396484,4.016800403594971,3.1193268299102783,-1.249920129776001,2.6262295246124268,-0.22797541320323944,4.905704498291016,0.057073235511779785,-2.2508111000061035,1.8237073421478271},
    		{-6.481011867523193,-1.6134730577468872,-0.03981650248169899,0.7572045922279358,0.5604850053787231,2.774872064590454,-0.1948879063129425,2.680673599243164,2.4630467891693115,-2.7173573970794678,3.27167010307312,-0.18579089641571045,0.0739804357290268,0.0307023823261261,3.3845903873443604,-1.9227557182312012},
    		{-2.926426887512207,-0.43881112337112427,0.2427775263786316,-1.1026440858840942,-3.260798215866089,1.7119554281234741,-1.7783535718917847,0.7144386768341064,5.860365867614746,-1.2360920906066895,1.2752327919006348,-3.0406606197357178,3.2211575508117676,-0.06355418264865875,1.8391122817993164,-3.89420747756958},
    		{2.27164626121521,0.28231126070022583,0.21487796306610107,-2.5044727325439453,-1.177310585975647,7.318484306335449,-2.976039409637451,-1.698278546333313,2.3885765075683594,1.906937599182129,-1.3069734573364258,-1.7191050052642822,0.04124193638563156,-0.00644402951002121,-1.0849287509918213,-5.828234672546387},
    		{0.07381650805473328,-2.2369024753570557,0.08782629668712616,-4.138811111450195,-1.3880583047866821,7.569118976593018,-2.341336488723755,-3.8267695903778076,2.4653337001800537,0.960472822189331,1.2625585794448853,-2.335906505584717,-4.47014045715332,0.04675514996051788,3.2088139057159424,-4.0467352867126465},
    		{-0.1504259705543518,-5.298673629760742,-0.24310699105262756,-0.8785446882247925,-0.5250136256217957,2.431837320327759,-2.481900215148926,-1.574457049369812,-0.27800452709198,2.584951639175415,-2.858664035797119,-1.8010506629943848,0.38742321729660034,-0.1805872768163681,-2.643207550048828,-4.251893520355225},
    		{-3.7754299640655518,-3.397536277770996,-0.2439187616109848,0.15564167499542236,-0.0838233008980751,3.984314203262329,-2.3788950443267822,-0.3681751489639282,2.164853096008301,3.0748543739318848,-1.498849868774414,-1.7097976207733154,-1.3545974493026733,-0.12992875277996063,-1.7359260320663452,-6.860767364501953},
    		{-0.31102678179740906,-1.535231351852417,-0.10121995210647583,-1.7305909395217896,-3.4338133335113525,1.1187626123428345,1.1732312440872192,-1.8797837495803833,2.3725619316101074,-0.7069490551948547,0.5589650273323059,-3.945329189300537,0.8124235272407532,-0.16598914563655853,-0.17087316513061523,-5.65077543258667},
    		{-0.0615541934967041,-0.4352220296859741,-0.2191687673330307,-5.412959098815918,-0.5131528377532959,2.6254637241363525,-1.7699753046035767,-1.0506327152252197,0.8725064396858215,1.4025675058364868,0.14236898720264435,-4.2632060050964355,-0.15552695095539093,-0.09304255247116089,-1.374711513519287,-5.576092720031738},
    		{1.0135365724563599,-1.8626841306686401,-0.0444207563996315,-5.77040433883667,0.3433648943901062,0.5514084696769714,-1.2236491441726685,0.11356702446937561,2.293546199798584,2.2992355823516846,-1.9144490957260132,-0.24047918617725372,-0.2253517061471939,0.1363770216703415,-1.5366311073303223,-4.413574695587158},
    		{0.023743895813822746,-0.4432980418205261,0.23893113434314728,-5.697131633758545,1.2130143642425537,2.6713247299194336,0.07367601990699768,0.19583886861801147,-0.2197486311197281,3.4923481941223145,-0.9827069640159607,-1.622592806816101,1.4841324090957642,0.13235358893871307,-1.1512631177902222,-4.122983455657959},
    		{0.1578952968120575,0.6267845630645752,0.1726396083831787,-4.16132116317749,-0.42028820514678955,0.7222830653190613,-2.405743360519409,0.9856178164482117,-0.21590425074100494,1.7339648008346558,0.8202150464057922,-3.560401678085327,-1.1161140203475952,0.19320641458034515,-2.1715087890625,-3.7429494857788086},
    		{-0.4208661615848541,-1.1321158409118652,0.12985755503177643,-1.3698933124542236,1.1512564420700073,2.3565526008605957,-1.131941318511963,3.1881182193756104,0.9174270629882812,-1.994672417640686,-0.051095154136419296,-3.3272836208343506,-0.286430686712265,0.16396833956241608,-1.7713087797164917,-0.630046010017395},
    		{-1.5925986766815186,-0.28977757692337036,0.15543954074382782,0.1282264143228531,0.5036510229110718,0.268670916557312,0.21152354776859283,0.25517138838768005,0.33136945962905884,-1.7110390663146973,-0.858372151851654,-6.054830551147461,-0.8589950799942017,0.2509697377681732,0.32889261841773987,-1.3306416273117065},
    		{1.9586291313171387,-0.8318579196929932,0.1977437287569046,1.7877349853515625,-0.04530232399702072,-1.5996971130371094,-0.4989141821861267,0.6033288836479187,-0.4629738926887512,-1.0387438535690308,0.7260552048683167,-8.586976051330566,0.21519525349140167,0.2271321713924408,-2.263148784637451,-0.6780877113342285},
    		{0.019665857776999474,-0.21820761263370514,0.0189904123544693,5.8982744216918945,4.252894401550293,-1.2618473768234253,3.426664352416992,-3.1455178260803223,1.0745925903320312,-1.8111740350723267,0.1851212978363037,-4.840158939361572,-1.5211822986602783,-0.01570582389831543,-0.48313742876052856,1.131375789642334},
    		{3.5376014709472656,1.8430368900299072,-0.14111851155757904,2.2667384147644043,3.1166343688964844,0.29574209451675415,1.7664364576339722,3.2880337238311768,2.6485490798950195,1.202093482017517,0.5498780012130737,-4.951735496520996,-0.01741754822432995,-0.002975061535835266,-1.0702084302902222,-0.18699385225772858},
    		{3.1069629192352295,3.633979320526123,-0.11581972986459732,-1.4067552089691162,1.962937831878662,-3.124796152114868,5.055180072784424,1.239093542098999,-0.9458977580070496,-0.41674965620040894,6.162192344665527,-3.60056209564209,2.4719057083129883,0.0780361145734787,-3.075805902481079,0.5766755938529968},
    		{-4.360996246337891,-0.016179878264665604,-0.23526963591575623,-1.3733582496643066,2.451601982116699,-1.076920747756958,7.946585655212402,2.4151735305786133,0.9197973012924194,1.7855199575424194,-1.2609270811080933,-4.4788432121276855,-2.3299384117126465,-0.013392232358455658,-8.729601860046387,1.043177843093872},
    		{-2.1748156547546387,-0.05941975489258766,-0.10520631819963455,2.9259326457977295,3.0338103771209717,2.850191831588745,-1.9327077865600586,0.7831949591636658,-4.247322082519531,5.540205478668213,-2.762606143951416,-2.1746201515197754,-3.8825929164886475,-0.07983528822660446,-5.273953437805176,1.2699995040893555},
    		{-2.399264335632324,0.038238607347011566,0.07611660659313202,-0.003989849705249071,3.562344551086426,1.9207428693771362,-8.818827629089355,1.7960593700408936,3.2300944328308105,4.555349349975586,-1.0321714878082275,0.9913368821144104,0.5569173693656921,-0.004973791539669037,-4.01671838760376,-0.17949022352695465},
    		{0.0770966112613678,0.06004756689071655,0.006397426128387451,-0.5327158570289612,-0.03732936829328537,-0.2612853944301605,-1.0384098291397095,-0.0770203024148941,0.005273841321468353,2.283848524093628,0.03353835642337799,0.17046262323856354,0.2802172005176544,0.04489956796169281,-1.9820274114608765,-0.03543149679899216},
    		{-0.07150817662477493,0.028262987732887268,0.08248448371887207,0.06309323012828827,-0.015214122831821442,-0.059290751814842224,-0.006881013512611389,0.00831960141658783,0.08334733545780182,0.008169636130332947,0.04775218665599823,0.037560269236564636,0.011691570281982422,-0.08505968749523163,-0.0676775798201561,-0.05353676527738571},
    		{-0.042337436228990555,-0.023302674293518066,0.08137792348861694,-0.012900568544864655,0.0667722225189209,-0.054562684148550034,-0.04748621955513954,0.0678444355726242,0.06847558915615082,0.03698715567588806,0.005135133862495422,-0.00708596408367157,-0.07750254124403,0.07669451832771301,-0.0675775408744812,0.0382358655333519},
    		{-4.245044231414795,-0.004475854337215424,-0.0038966014981269836,0.6910132765769958,1.5666900873184204,2.780205726623535,-3.5596683025360107,1.6206469535827637,2.1167125701904297,-0.7873137593269348,-4.497615337371826,0.0360974445939064,-0.3723004460334778,-0.08486968278884888,6.505313396453857,-0.06578874588012695},
    		{0.18305979669094086,3.0652310848236084,0.01732565462589264,0.5613292455673218,-3.893310546875,1.442203164100647,-0.6325609683990479,-1.6336034536361694,2.4672677516937256,-1.3864487409591675,-3.2342207431793213,-0.07733123004436493,2.423151731491089,0.021381758153438568,4.498728275299072,-0.33343997597694397},
    		{0.8627241849899292,0.04320657253265381,0.03696976602077484,-0.5133042335510254,-6.301650524139404,0.11157737672328949,2.1384940147399902,-6.54805326461792,6.332356929779053,-1.8510316610336304,-2.5207488536834717,-1.454769492149353,-2.0444021224975586,0.00893324613571167,1.7994056940078735,-2.4783101081848145},
    		{-3.9422340393066406,0.40053167939186096,0.08060196042060852,-1.4973640441894531,-2.861872673034668,2.725558280944824,-1.5015501976013184,-1.048331618309021,4.661804676055908,-2.556575298309326,-2.7276229858398438,-1.3608770370483398,1.8693914413452148,-0.009601838886737823,-2.120934247970581,3.6410865783691406},
    		{-0.30833083391189575,-2.0104176998138428,0.020900629460811615,2.370249032974243,-2.250981330871582,-0.8776560425758362,-0.5455920100212097,0.3071993887424469,4.44191837310791,-0.666295051574707,-2.817430019378662,-0.5178407430648804,-2.650359869003296,-0.24752983450889587,-1.093382716178894,1.604152798652649},
    		{-2.2354393005371094,-3.527559280395508,-0.18939648568630219,3.3480942249298096,-1.962075114250183,4.863215923309326,2.1165993213653564,2.0800392627716064,1.5832912921905518,1.4077249765396118,0.09552499651908875,-1.017473578453064,1.8009499311447144,-0.14679981768131256,3.031994104385376,-1.8162803649902344},
    		{0.07402007281780243,0.03424263745546341,-0.09108241647481918,1.3495802879333496,-1.8765960931777954,-1.2607600688934326,0.47890064120292664,-0.209634467959404,-0.006469899322837591,-0.6591691374778748,0.7663237452507019,-2.9692280292510986,4.413572311401367,-0.23357157409191132,-5.153867721557617,0.5664005279541016},
    		{1.4621065855026245,0.4401342570781708,-0.1822846382856369,-2.1533029079437256,0.9062477946281433,0.06422745436429977,-1.2291871309280396,-2.2741246223449707,-0.2343762069940567,-0.5256547927856445,-1.8397947549819946,-2.1613612174987793,-1.1894357204437256,-0.2647360861301422,-4.462607383728027,0.9937500953674316},
    		{2.2450687885284424,-9.86512565612793,-0.09593331068754196,3.0940868854522705,0.5707765221595764,1.9584444761276245,-1.2832934856414795,-2.157578945159912,1.0190138816833496,-0.7997236847877502,0.4247995615005493,-0.7210596203804016,-1.670072078704834,-0.09885260462760925,-2.2881603240966797,-2.1474874019622803},
    		{-2.1684975624084473,-8.424859046936035,-0.1411319375038147,-1.27960205078125,0.5745479464530945,0.5765926241874695,-2.231473922729492,1.1670058965682983,1.6071001291275024,1.240094542503357,-3.7955453395843506,-1.0496938228607178,-1.923512578010559,-0.16556000709533691,-3.270381450653076,-0.8167145848274231},
    		{-2.630732536315918,-4.442566871643066,-0.16126732528209686,-0.3728085160255432,-0.3196141719818115,2.430379867553711,-1.8545982837677002,0.4935608208179474,1.1116728782653809,1.0880227088928223,-3.4869120121002197,-1.181286334991455,0.7412139177322388,-0.12085168808698654,-4.029166221618652,-1.3928357362747192},
    		{1.3578864336013794,-3.7026853561401367,-0.09998299181461334,-1.609427571296692,0.3864746689796448,1.1166343688964844,-0.755200207233429,-1.3535242080688477,-0.0988108366727829,0.5124883055686951,-2.4118075370788574,-1.532572865486145,0.5165128707885742,-0.1327618509531021,-2.985506534576416,-9.480991866439581e-05},
    		{1.5123188495635986,-5.160045623779297,-0.14300276339054108,-5.341176986694336,-1.6526479721069336,0.5611592531204224,1.906282901763916,-0.9903773665428162,0.8677478432655334,1.5485821962356567,-1.8890774250030518,-1.5178242921829224,-1.0099148750305176,-0.10415516048669815,-1.0545282363891602,-2.006371259689331},
    		{-0.17343077063560486,-4.309579849243164,0.03348417952656746,-10.526741027832031,0.20846769213676453,2.1109402179718018,-0.3779355585575104,-1.88191556930542,0.8871538043022156,-0.4784207344055176,-1.4683080911636353,-3.050163984298706,-1.2832545042037964,-0.23667290806770325,0.5324591994285583,-1.4605573415756226},
    		{0.5955805778503418,-6.014756202697754,-0.05539386719465256,-2.5880703926086426,1.2313917875289917,2.3579466342926025,-0.3101557791233063,-2.370539903640747,2.37933087348938,1.6437052488327026,-2.8212151527404785,-1.366320252418518,-0.04770796373486519,0.11557693034410477,-1.1260589361190796,-3.369063377380371},
    		{2.0720319747924805,-4.208568096160889,0.013796264305710793,0.4121464192867279,2.1245102882385254,-0.5163938403129578,0.3203746974468231,-0.8625123500823975,0.6024941802024841,3.7726492881774902,-1.4537547826766968,-3.67657732963562,-2.232923746109009,-0.0997469574213028,-6.5053486824035645,-2.439816951751709},
    		{1.8152132034301758,-7.37808084487915,0.1368790864944458,2.841096878051758,1.2341240644454956,0.37378498911857605,-1.2344796657562256,-2.2452080249786377,1.8847004175186157,0.9595330357551575,-0.23123258352279663,-7.916869640350342,-0.2167518436908722,-0.21073436737060547,-1.1267011165618896,-0.12513050436973572},
    		{3.2395975589752197,-9.697501182556152,0.2193140834569931,3.3538851737976074,0.23782604932785034,0.5036467909812927,-1.766432285308838,0.23791417479515076,1.4641276597976685,1.884027123451233,1.347295880317688,-3.7864248752593994,-1.276813268661499,0.15985596179962158,-2.4623019695281982,-0.5945807099342346},
    		{-0.9898085594177246,-6.037950038909912,0.10883647203445435,0.03869866952300072,1.5287175178527832,3.8090336322784424,0.23862189054489136,0.4411153495311737,0.0119842030107975,1.9990642070770264,2.721001625061035,-2.8120357990264893,-2.2495312690734863,-0.11879263818264008,-1.2336206436157227,-0.6522324085235596},
    		{-1.9826909303665161,-3.758448600769043,0.20472601056098938,1.527540683746338,0.9815016984939575,2.1811394691467285,2.0523183345794678,-1.6769890785217285,-1.3065232038497925,2.940958261489868,2.331411838531494,-0.30784428119659424,-0.3967544734477997,-0.1364673674106598,0.5734381079673767,-2.825152635574341},
    		{-0.7075076103210449,-0.09549857676029205,0.09121173620223999,0.2611275017261505,4.011167049407959,1.414158582687378,0.36529281735420227,0.3064956068992615,2.1181070804595947,1.1907480955123901,-1.0349453687667847,-1.8997716903686523,0.5354698300361633,-0.21726980805397034,1.1280291080474854,-1.1067116260528564},
    		{-2.1911232471466064,-1.1645971536636353,-0.1499941647052765,0.9075817465782166,1.6259998083114624,-1.1260919570922852,3.5310769081115723,-1.856147050857544,2.5107638835906982,-0.6254867911338806,7.022604942321777,-2.7634761333465576,3.805694818496704,-0.16252531111240387,-3.0762510299682617,-1.2848398685455322},
    		{-1.643742561340332,-0.5062471628189087,-0.16205143928527832,0.7218506932258606,0.9236274361610413,-0.44811391830444336,5.026317596435547,5.619546413421631,2.0978031158447266,-0.9518377184867859,-0.9967008829116821,-7.245347499847412,-0.030267680063843727,-0.22310024499893188,0.05973638594150543,-0.4208928048610687},
    		{-5.242258071899414,-1.1343759298324585,-0.19641652703285217,-1.113023042678833,4.424567222595215,1.698396921157837,1.2924453020095825,5.846580505371094,-3.7676210403442383,2.602938413619995,-8.715377807617188,-3.6873161792755127,-1.2105932235717773,-0.25399431586265564,-5.209146976470947,0.306251585483551},
    		{-7.7418060302734375,-0.748276948928833,0.051612988114356995,-2.877718210220337,1.3482030630111694,0.23025447130203247,-1.3001008033752441,-0.7614029049873352,-0.3241344094276428,2.4519455432891846,-0.32145053148269653,3.470994234085083,-0.3304580748081207,-0.15410099923610687,-1.7144333124160767,-2.533855676651001},
    		{-1.8056379556655884,-0.01109902560710907,0.027372553944587708,-0.09752961248159409,1.5277537107467651,-0.31220903992652893,-2.158735990524292,-1.3608574867248535,0.023549651727080345,0.906278133392334,-0.05181568115949631,3.469672441482544,-0.33832237124443054,-0.08054701238870621,-1.6616003513336182,0.045906323939561844},
    		{-0.055764131247997284,0.05154472589492798,-0.07778776437044144,0.03561706095933914,-0.06803222000598907,0.01631123572587967,-0.026801522821187973,0.0243820920586586,-0.025582607835531235,0.027054019272327423,-0.04844648018479347,-0.043555546551942825,0.04777340590953827,0.06805621087551117,-0.02576073631644249,0.07255460321903229},
    		{0.07735864818096161,-0.06200967729091644,0.08243457973003387,-0.003481067717075348,-0.05509613826870918,-0.035399507731199265,-0.38293319940567017,-0.43854284286499023,0.9102835655212402,-0.32632845640182495,0.32061195373535156,-0.03829896077513695,0.3953650891780853,0.06095154583454132,0.3184985816478729,0.4908962845802307},
    		{0.23589278757572174,7.419974327087402,-0.021627239882946014,0.3542606234550476,0.2791898250579834,-2.8052561283111572,-1.0876108407974243,-0.5446459054946899,-5.327228546142578,1.1789008378982544,3.6103882789611816,2.279175281524658,-2.330824851989746,0.05324491858482361,-1.5353810787200928,3.9301209449768066},
    		{-0.22649183869361877,6.109296798706055,-0.03317283093929291,-5.332913398742676,-4.742312431335449,0.15270155668258667,-2.3606152534484863,-1.4912179708480835,3.1728055477142334,1.0135836601257324,-1.909035563468933,-0.8136994242668152,-2.356928825378418,0.051128506660461426,1.8921629190444946,2.7247371673583984},
    		{1.621348261833191,7.01254940032959,-0.015159592032432556,-3.6811294555664062,-4.414591312408447,0.8833811283111572,4.306994438171387,0.9340758323669434,3.3258140087127686,-4.895089626312256,-1.97684645652771,0.33909544348716736,-0.6192929148674011,-0.0865488350391388,1.345484972000122,0.12309892475605011},
    		{1.1423349380493164,7.838087558746338,-0.11419723927974701,-0.6804240942001343,-2.617675304412842,-2.1238889694213867,2.5661749839782715,3.7634472846984863,2.9907937049865723,-4.148314476013184,-2.801603317260742,-1.684168815612793,-3.932244300842285,-0.13609710335731506,-3.227915048599243,0.14683513343334198},
    		{0.251237690448761,2.1076760292053223,-0.2356158345937729,0.6709094047546387,-1.8289910554885864,-1.6958990097045898,-1.3375816345214844,0.8990048766136169,2.0492701530456543,-1.4842512607574463,-2.6733810901641846,-2.516871452331543,2.0402071475982666,-0.14262732863426208,-1.3889737129211426,0.06548954546451569},
    		{0.5628730654716492,-1.7130639553070068,-0.13782627880573273,0.3389318287372589,-1.0296000242233276,2.14009165763855,0.6187145709991455,-0.5665038228034973,0.003908091224730015,-1.5306010246276855,1.960350751876831,-1.474901795387268,1.3256057500839233,-0.2299734652042389,-0.23975835740566254,1.251018762588501},
    		{-1.4339617490768433,0.5529173016548157,-0.2245999276638031,0.045473672449588776,-0.6831755042076111,-0.26585832238197327,-0.23015549778938293,-0.7314895391464233,0.325679212808609,-1.8137829303741455,-1.9126776456832886,-0.5193231701850891,1.4481704235076904,-0.2295192927122116,-7.441625595092773,2.795074701309204},
    		{-3.6752495765686035,-3.1022350788116455,-0.12051200121641159,4.56975793838501,-1.0301592350006104,-0.09586737304925919,1.526248812675476,-1.7405978441238403,1.1625592708587646,0.006548415403813124,-1.9141377210617065,-0.6822260022163391,1.9926440715789795,-0.21845676004886627,-5.001068592071533,0.03319554775953293},
    		{-0.3217103183269501,-9.193120956420898,-0.25083693861961365,-1.6868418455123901,-2.0962038040161133,1.1426647901535034,-2.584477424621582,-0.3073658049106598,2.494058847427368,0.20324672758579254,-2.837803840637207,-1.0387382507324219,4.581640243530273,-0.21740804612636566,-2.1742331981658936,2.7563748359680176},
    		{-1.209908127784729,-1.4872877597808838,-0.10853511095046997,-3.2401421070098877,0.22313180565834045,1.6280980110168457,-1.7535954713821411,-1.0048696994781494,1.8880947828292847,0.6971226930618286,-0.2136514037847519,-4.036511421203613,0.7019949555397034,-0.21855677664279938,-2.350385904312134,3.257706642150879},
    		{-0.6368291974067688,1.7954176664352417,-0.21139898896217346,-1.2606295347213745,1.047415852546692,-0.03825224190950394,-2.5061728954315186,-1.2457566261291504,-1.0413445234298706,1.14728581905365,-2.317269802093506,-4.639759540557861,0.8089578151702881,-0.14642488956451416,-2.6972081661224365,2.004941701889038},
    		{0.5558086037635803,-1.69054114818573,-0.26565343141555786,-0.9355701208114624,-1.9504060745239258,-0.7673916816711426,-0.3950781524181366,-1.6305928230285645,1.251505970954895,-0.2917444705963135,-3.9319581985473633,-0.40147483348846436,-0.4294683039188385,-0.10680187493562698,-3.021216869354248,1.4965193271636963},
    		{0.14486965537071228,-0.6216344833374023,-0.16261158883571625,-5.583800792694092,-0.9073656797409058,-0.04125203564763069,0.6618691682815552,-0.07377089560031891,0.15151439607143402,-0.404241681098938,-1.7550747394561768,-0.16067945957183838,-0.35625144839286804,-0.15820832550525665,-2.4546329975128174,1.7431559562683105},
    		{0.7686692476272583,-3.3157033920288086,-0.03072383627295494,-13.058810234069824,-0.154873788356781,2.8871190547943115,-1.2043718099594116,0.7870872020721436,0.3247239291667938,0.4936141073703766,-0.8648583889007568,-2.933663845062256,-0.5787036418914795,0.20866909623146057,-5.00067138671875,0.4998457431793213},
    		{-0.9518022537231445,-4.343338966369629,-0.20144148170948029,-4.224016189575195,-0.8218305706977844,1.697641372680664,-1.4335130453109741,0.07566269487142563,0.41460561752319336,-0.4031398892402649,-1.3790236711502075,-4.316436767578125,0.4590558111667633,-0.23442694544792175,-1.3981558084487915,0.7329103350639343},
    		{0.053237222135066986,-1.7595100402832031,-0.29178765416145325,1.675078272819519,1.0933939218521118,-0.7937027215957642,0.17240144312381744,-0.9727952480316162,0.3074910342693329,-0.7931360006332397,-2.632375717163086,-2.10837459564209,-1.0403283834457397,-0.09777449816465378,-1.9466407299041748,3.2704594135284424},
    		{0.09247483313083649,0.9728173613548279,-0.2167908251285553,1.9280476570129395,-0.26329106092453003,0.447888046503067,-3.094013214111328,-1.5252149105072021,1.751451849937439,0.7499014735221863,-3.9047977924346924,0.10401932150125504,-0.6067290306091309,-0.10330706089735031,0.2810197174549103,3.355851888656616},
    		{-0.018763702362775803,2.335446357727051,-0.1584307849407196,0.22860117256641388,2.3909523487091064,-0.02293279953300953,-1.750319004058838,1.1315128803253174,-0.965417206287384,1.7814407348632812,-1.5754202604293823,0.5104129910469055,2.4621517658233643,-0.1191672831773758,-2.576439619064331,0.3531937301158905},
    		{-1.3969826698303223,-2.5039398670196533,-0.21885548532009125,0.3262210190296173,3.0338878631591797,-0.6601121425628662,0.16136053204536438,1.2994786500930786,2.7367265224456787,0.7931213974952698,-1.8905515670776367,1.0903693437576294,1.2515408992767334,-0.23494024574756622,-1.0163090229034424,1.9308576583862305},
    		{2.597771167755127,-0.31711912155151367,-0.14567582309246063,0.8007036447525024,0.40451374650001526,-1.1596449613571167,-0.09117098897695541,0.7654008865356445,1.149609923362732,-0.7500177025794983,0.4538135230541229,2.1347522735595703,-1.1925820112228394,-0.15305432677268982,0.6836979389190674,3.27852201461792},
    		{1.7620563507080078,0.43916773796081543,-0.2434794157743454,1.576289176940918,2.725249767303467,-1.5888943672180176,1.670630931854248,0.07750120759010315,1.5878974199295044,-0.37889066338539124,-0.3666017949581146,3.3022775650024414,-0.7662912607192993,-0.1583303064107895,-0.2852201759815216,-2.5117883682250977},
    		{-0.9335823059082031,-2.5736634731292725,-0.21561282873153687,3.759413242340088,3.2054080963134766,-4.289229869842529,3.4833014011383057,1.9633450508117676,1.3431316614151,3.276494026184082,-2.649587631225586,1.54580557346344,-0.41306978464126587,-0.09769002348184586,1.1215683221817017,-2.9329469203948975},
    		{-2.2695772647857666,-4.193743705749512,-0.12153400480747223,-1.0762221813201904,10.608426094055176,-5.268141746520996,3.5055532455444336,0.7365238666534424,4.0362548828125,2.6544766426086426,-0.19651637971401215,0.8241122364997864,-0.2563348710536957,-0.2548440992832184,-3.863116979598999,-3.6679599285125732},
    		{-4.811643123626709,-4.846685886383057,-0.07486288249492645,-4.075551986694336,11.119647026062012,-0.8081858158111572,2.387556314468384,3.3926901817321777,0.8407613635063171,3.161527156829834,-2.676206350326538,-0.851828932762146,-4.2038798332214355,-0.11848708242177963,-3.0036654472351074,-0.555627167224884},
    		{-4.137447834014893,-2.898369789123535,0.023157767951488495,-2.0594682693481445,2.5018179416656494,0.22915062308311462,2.677495241165161,-1.1437878608703613,2.1641666889190674,-1.1541309356689453,-2.71785569190979,3.234928846359253,-2.3589816093444824,-0.22812755405902863,2.113832950592041,-1.3630415201187134},
    		{-2.5282974243164062,-1.7532529830932617,0.016312018036842346,-0.25681930780410767,1.5329158306121826,0.9682590961456299,-2.0985825061798096,-5.03194522857666,0.21246711909770966,-3.277384042739868,-2.3194658756256104,3.921308994293213,0.5024665594100952,0.06000027060508728,2.451317548751831,-0.7391695976257324},
    		{0.05338805913925171,0.6434130072593689,0.058217987418174744,0.07038500905036926,0.06084999442100525,0.05334046483039856,-0.024296589195728302,-0.051298849284648895,0.02221621572971344,0.06704609096050262,0.0460488498210907,0.07248856127262115,-0.6234133839607239,0.03351707011461258,0.07445532083511353,0.6427243947982788},
    		{0.06827929615974426,4.51664400100708,-0.0007491409778594971,0.19209358096122742,0.05712041258811951,-1.1692551374435425,-0.4154191315174103,-2.526287794113159,1.7291651964187622,-1.6317014694213867,0.29485923051834106,0.011901848018169403,0.2983141541481018,-0.06880390644073486,0.46408939361572266,0.9104109406471252},
    		{-5.136016368865967,7.029212951660156,0.019404523074626923,-1.3692799806594849,-2.264279365539551,-1.5874868631362915,-0.4271424412727356,-1.6181517839431763,-3.720158576965332,-0.5968436598777771,2.8782362937927246,2.2331430912017822,0.9940937757492065,0.07242846488952637,-1.912756085395813,3.632657051086426},
    		{3.984966516494751,7.060786247253418,0.03552901744842529,-0.7818971872329712,-3.1588377952575684,-3.051553726196289,-0.547897219657898,-1.878317952156067,0.8531625270843506,-2.9452645778656006,-3.2432117462158203,-2.0818281173706055,2.681044578552246,-0.028452467173337936,-1.0079176425933838,3.358492612838745},
    		{2.887521743774414,3.4145519733428955,-0.21627826988697052,-0.4480125308036804,-4.831673622131348,2.645840883255005,3.5491089820861816,3.8691391944885254,2.390369415283203,0.4196806252002716,-2.611297369003296,-3.7923974990844727,2.3339996337890625,-0.022603176534175873,-0.5309707522392273,-2.4468188285827637},
    		{-0.09637821465730667,2.321819543838501,-0.17013095319271088,0.36976054310798645,-2.3074491024017334,-2.0152697563171387,-0.04301978647708893,2.035175085067749,3.263010025024414,0.7337789535522461,-2.3485517501831055,-1.6567864418029785,-1.7752641439437866,-0.20462732017040253,-6.285937786102295,-4.919510841369629},
    		{0.5290997624397278,4.566051006317139,-0.17710795998573303,-4.689678192138672,-1.9964910745620728,3.608318567276001,-2.477006435394287,-2.080321788787842,1.8998953104019165,-0.41636553406715393,-1.1071630716323853,-3.2028675079345703,-2.5058345794677734,0.18059350550174713,-1.3975473642349243,-2.289207696914673},
    		{1.6301867961883545,2.9097788333892822,-0.16800278425216675,-0.5370591282844543,-0.48735833168029785,0.4490549862384796,-1.0757216215133667,-0.146691232919693,-0.3724897801876068,-0.4881308078765869,0.6466832160949707,-1.2840300798416138,2.735412359237671,-0.2259499877691269,-1.8072870969772339,-1.2138558626174927},
    		{-3.442772626876831,-1.0821948051452637,-0.11419009417295456,0.5269568562507629,1.763498067855835,1.285922884941101,0.23106059432029724,0.6580356955528259,-0.6126749515533447,2.9755351543426514,-0.5266307592391968,1.4138273000717163,-0.2908865213394165,-0.23139746487140656,-6.40724515914917,-0.8600794076919556},
    		{-0.5321707725524902,0.8999961018562317,-0.19807228446006775,0.07522468268871307,0.33596014976501465,-1.6161136627197266,-0.6765443682670593,0.4837052822113037,-0.4156437814235687,-0.4937678277492523,-1.1042749881744385,-0.7781904935836792,0.715587317943573,0.1808910071849823,0.5081084966659546,0.830852746963501},
    		{0.7430994510650635,1.2499005794525146,-0.2080821394920349,2.3895246982574463,2.3372812271118164,-1.172454833984375,-1.4745988845825195,-0.2670775055885315,-0.06341712176799774,1.0603225231170654,-0.10973633825778961,3.303291082382202,1.1344473361968994,-0.21297641098499298,0.8968423008918762,0.12119676917791367},
    		{1.9571950435638428,-0.9131064414978027,-0.180181622505188,1.8746424913406372,0.5142144560813904,3.0133163928985596,-2.5718655586242676,-0.7644544243812561,0.5410000085830688,-0.4299289584159851,-0.7190397381782532,-0.20967334508895874,1.445799708366394,-0.1214563399553299,0.3832162320613861,-0.06995975971221924},
    		{-1.2257754802703857,-1.7784271240234375,-0.2030942440032959,0.17910274863243103,-0.01762908697128296,-0.7491371631622314,-3.819445848464966,-0.34862634539604187,0.5401408076286316,-1.334675908088684,-2.4877431392669678,1.7032703161239624,0.17478366196155548,-0.1674272119998932,1.7070239782333374,2.181102752685547},
    		{0.39712560176849365,-2.2844367027282715,-0.2122991383075714,-2.342637300491333,-0.42135292291641235,0.5941049456596375,-0.7698732614517212,-1.4061325788497925,0.7033625245094299,0.5970603823661804,-4.682048797607422,0.3674509823322296,1.5080571174621582,-0.14221343398094177,-3.8465077877044678,0.6944972276687622},
    		{-0.2861687242984772,-3.5012710094451904,-0.12933099269866943,-6.864149570465088,0.33420631289482117,0.712044894695282,0.10267001390457153,-2.848546028137207,2.016747236251831,-0.42695876955986023,-0.16747303307056427,-2.4307074546813965,-2.320002317428589,-0.13511525094509125,-0.7382014989852905,1.0265856981277466},
    		{0.16624820232391357,-4.232943534851074,-0.11208024621009827,-11.013839721679688,1.428910493850708,0.32997649908065796,0.006841400172561407,-1.201013207435608,0.8920126557350159,1.409346103668213,-0.45447245240211487,-1.2156943082809448,-1.7937469482421875,-0.10887370258569717,-2.732154369354248,0.7792319059371948},
    		{-0.8613543510437012,-2.779508113861084,-0.3172435164451599,-2.6307883262634277,1.3441110849380493,-0.09210966527462006,-0.7059735059738159,-1.172075867652893,1.653115153312683,-0.7468662858009338,-1.9792752265930176,-1.3658417463302612,0.8692889213562012,-0.15917812287807465,-1.7780907154083252,2.5643742084503174},
    		{1.9304958581924438,-1.5618183612823486,-0.19775450229644775,0.8244733214378357,1.862038493156433,0.48457473516464233,-0.2828320562839508,-0.14852848649024963,1.2514632940292358,-0.9962795376777649,-2.154390573501587,-1.9802616834640503,0.2311001867055893,-0.0952221155166626,-0.5917392373085022,1.7871897220611572},
    		{2.686523914337158,0.5989656448364258,-0.22285881638526917,1.7401857376098633,3.5016751289367676,-1.2285128831863403,-2.3556408882141113,0.991071879863739,1.006554126739502,1.8942039012908936,-2.765808582305908,-0.5685350298881531,0.2689313590526581,-0.20584885776042938,-1.8688143491744995,0.4899773895740509},
    		{1.5725178718566895,-2.1075756549835205,-0.1332056224346161,2.341132640838623,1.319706678390503,-0.8785442113876343,-1.777189016342163,2.395371198654175,2.4266459941864014,0.17690697312355042,-3.312598466873169,-4.454440116882324,1.488766074180603,-0.11661071330308914,-0.6047306656837463,0.17435388267040253},
    		{0.6632976531982422,-2.7735471725463867,-0.19824224710464478,0.3453874886035919,3.00927734375,-1.1008204221725464,-0.42643478512763977,0.19723469018936157,1.6535660028457642,-1.4844443798065186,-3.4048714637756348,-0.5962223410606384,2.241164207458496,-0.10766632854938507,1.5675026178359985,-1.5862301588058472},
    		{1.5084928274154663,-1.4375813007354736,-0.24441106617450714,0.5483417510986328,1.2610032558441162,-1.101032018661499,-1.0887444019317627,0.9341869950294495,-0.9241476058959961,3.1401522159576416,-3.138474225997925,3.3417367935180664,-0.28592535853385925,-0.15073992311954498,0.7531906962394714,-1.1357451677322388},
    		{0.5115053653717041,-1.2619397640228271,-0.19750796258449554,4.040106296539307,2.678420066833496,2.04209041595459,0.1195298433303833,3.6205995082855225,-2.2066617012023926,1.92079496383667,-2.0941357612609863,4.3730692863464355,-0.3128146529197693,-0.1291571706533432,0.7264232039451599,-1.3956825733184814},
    		{-0.545698881149292,1.011638879776001,-0.20123453438282013,4.541029930114746,1.665284276008606,-4.063891410827637,2.3616435527801514,0.6895208954811096,-2.2721328735351562,1.444753646850586,-7.569772720336914,1.6524128913879395,-1.6652874946594238,-0.235173299908638,1.8308566808700562,-2.8988587856292725},
    		{-0.569394052028656,-1.294851541519165,-0.07184584438800812,-0.9058974981307983,1.6292434930801392,-6.318185806274414,4.546341419219971,-3.4860634803771973,2.73769211769104,1.7344791889190674,0.7778399586677551,-0.9321902990341187,-5.525054454803467,-0.16636709868907928,-6.770923137664795,-0.5370081067085266},
    		{-2.3214643001556396,-0.7094176411628723,-0.025008440017700195,-4.57429313659668,3.5694754123687744,-0.888971209526062,0.6397008299827576,-4.115706920623779,3.5622057914733887,-0.8454311490058899,4.465329647064209,2.3086295127868652,-5.765249729156494,-0.12791940569877625,-6.407137870788574,-2.42401385307312},
    		{-5.083107948303223,-1.8922343254089355,0.07773740589618683,-1.6024497747421265,3.8276185989379883,-0.28493109345436096,2.252152442932129,-4.097766876220703,1.8469738960266113,-1.2341736555099487,-2.244696617126465,4.528476238250732,-0.002600101986899972,-0.18777519464492798,1.8630353212356567,-1.8630008697509766},
    		{-1.3715200424194336,-0.7846736311912537,-0.07701031863689423,-0.716589629650116,0.8263984322547913,0.9126982688903809,-2.444368362426758,-4.769708633422852,0.30392006039619446,-3.0141775608062744,-4.253925323486328,4.529185771942139,0.07770878076553345,-0.005260936915874481,2.014054536819458,-0.7403758764266968},
    		{1.6810108423233032,1.580092430114746,-0.005460605025291443,0.011698074638843536,0.025567270815372467,0.4887371361255646,-1.182478427886963,-0.03473881259560585,-0.06716867536306381,0.012498406693339348,0.04001523554325104,0.08300499618053436,-0.66578209400177,-0.052120503038167953,0.08110687136650085,-0.8980849385261536},
    		{-0.005448959767818451,2.871439218521118,0.029310211539268494,-0.6757726669311523,-0.043048564344644547,2.719852924346924,-1.8157844543457031,-3.2568514347076416,-0.3661789298057556,-2.552826404571533,0.36054664850234985,-0.8635388016700745,3.5342612266540527,-0.06280694156885147,1.1726816892623901,-0.6521486043930054},
    		{-1.3548883199691772,2.124148368835449,0.08188395202159882,3.216712474822998,-2.633500099182129,-0.6542532444000244,-1.592857837677002,0.8541966080665588,2.250703811645508,0.32431942224502563,1.4383846521377563,0.1409561187028885,-0.3099692165851593,-0.04380432888865471,-2.1872212886810303,0.48235565423965454},
    		{5.908847808837891,4.564497947692871,-0.05983615666627884,1.7143208980560303,-3.2726387977600098,-2.175591230392456,-0.3508637845516205,-1.7142820358276367,1.6473889350891113,0.12875927984714508,-0.3952513635158539,-2.731475830078125,-1.1758649349212646,-0.010238468647003174,1.3508024215698242,2.151531219482422},
    		{1.2855364084243774,3.912689447402954,-0.16488038003444672,0.7205898761749268,-7.285608291625977,1.114156723022461,-0.10652466863393784,1.851772427558899,5.165717601776123,2.9537289142608643,-3.069164514541626,-2.8648715019226074,4.070108890533447,0.03730866312980652,-2.679332733154297,-3.3206944465637207},
    		{-2.362818479537964,-1.3832793235778809,-0.13179291784763336,1.7647528648376465,-1.6332664489746094,-0.8351505398750305,-0.5812054872512817,-2.235893487930298,1.995377779006958,-1.324742317199707,-0.887367308139801,-1.3112750053405762,-1.2103404998779297,-0.04832490533590317,-2.5585293769836426,2.099008083343506},
    		{1.145264983177185,-2.0319125652313232,-0.13442778587341309,-1.5272871255874634,-0.06037869676947594,-0.3669660687446594,-1.0175727605819702,0.33580583333969116,-1.1350983381271362,1.084123969078064,-3.1434550285339355,-1.7050117254257202,-2.109450578689575,0.1325102001428604,-1.6461055278778076,-0.7160189747810364},
    		{-0.11778686195611954,3.1940665245056152,-0.08185132592916489,-0.17925190925598145,-0.9329434037208557,0.5316609144210815,0.18319320678710938,1.4875826835632324,0.614931583404541,-0.08711473643779755,-2.8810834884643555,-0.9608482718467712,3.9740970134735107,-0.17107033729553223,-1.9828318357467651,-0.4583907723426819},
    		{-0.27710145711898804,2.571361541748047,-0.242838054895401,-0.49605774879455566,0.8195825815200806,0.4041789174079895,-0.7731813192367554,1.6915380954742432,-0.08262529224157333,0.23936213552951813,-1.4251397848129272,3.442614793777466,3.0253231525421143,0.14678284525871277,-5.918337345123291,2.629725694656372},
    		{-1.4748672246932983,1.3150925636291504,-0.13780835270881653,1.6155742406845093,-1.3357585668563843,0.3858093321323395,0.18114905059337616,3.4439127445220947,-1.347649335861206,-0.6160083413124084,0.5632825493812561,-1.4618574380874634,-0.019473686814308167,-0.2631106972694397,-6.451742172241211,1.159177541732788},
    		{-0.29183438420295715,1.612788200378418,-0.2133607417345047,2.0573854446411133,0.8469732403755188,0.9240965843200684,-0.742621123790741,1.1423324346542358,2.432727575302124,0.33042868971824646,-3.0127785205841064,-0.7068579196929932,3.809561014175415,-0.13059568405151367,-0.20412060618400574,0.5103057026863098},
    		{-0.07293391227722168,-0.4142830967903137,-0.22877594828605652,0.5045807361602783,1.5180702209472656,2.092427968978882,-1.1791682243347168,0.178754985332489,0.7825160622596741,-0.3810380697250366,-1.879387617111206,-2.0791571140289307,2.4730277061462402,-0.13462407886981964,-1.3027838468551636,1.703816533088684},
    		{0.6091082692146301,0.2085258662700653,-0.17489619553089142,0.0013820797903463244,-0.13376736640930176,0.5783588886260986,-2.1969053745269775,-0.405912309885025,1.5858654975891113,-0.046559493988752365,-0.27907928824424744,0.8582413196563721,0.5110759735107422,-0.1144719123840332,0.8506773114204407,0.6706854104995728},
    		{-0.6801308393478394,-1.9664342403411865,-0.24746175110340118,-3.5362119674682617,0.28365349769592285,-2.30244517326355,-0.5942245721817017,-0.2482210397720337,1.023972749710083,1.1509687900543213,-1.2109318971633911,0.2360290139913559,-0.19480280578136444,-0.25352391600608826,0.7834683060646057,0.5581287741661072},
    		{1.1928776502609253,-2.3212132453918457,-0.16723039746284485,-8.063631057739258,-1.9499001502990723,0.4714975357055664,-0.2735100984573364,-1.911681056022644,1.2042455673217773,-1.6191353797912598,-2.814943313598633,-1.19446861743927,2.3857297897338867,-0.1229892298579216,-0.14023937284946442,1.715226411819458},
    		{2.264963150024414,-0.629071056842804,-0.24562986195087433,-8.63079833984375,-0.7189702987670898,1.6124868392944336,0.852074921131134,-0.493586927652359,0.5294392704963684,-1.2929261922836304,-3.712524890899658,2.236517906188965,-1.1653813123703003,-0.21019421517848969,-1.3638266324996948,0.44862210750579834},
    		{3.784074306488037,-1.390750765800476,-0.19865472614765167,1.5754337310791016,0.6213765740394592,-0.8710530996322632,-1.911254644393921,-0.294690877199173,-0.2918582856655121,0.8679187893867493,-3.2317612171173096,0.6511311531066895,0.739383339881897,-0.10190809518098831,-3.283742904663086,0.93155837059021},
    		{2.457240104675293,-1.4454957246780396,-0.22880257666110992,3.723310708999634,2.019005537033081,0.811063826084137,-2.6374690532684326,-2.2034707069396973,1.55390202999115,-0.4858095943927765,-1.9972509145736694,1.0451006889343262,0.41155946254730225,-0.18403379619121552,1.322614312171936,-0.321715384721756},
    		{1.9156513214111328,2.0254762172698975,-0.2340090274810791,0.8241754174232483,1.3914369344711304,-0.781582772731781,-2.9374125003814697,-0.966597318649292,0.7672383785247803,-0.2432079166173935,-5.29193639755249,0.9087567925453186,-0.4590018689632416,-0.24209406971931458,-0.8559852838516235,0.867776095867157},
    		{0.14247572422027588,-0.9522947669029236,-0.09225767850875854,0.08581546694040298,2.9526968002319336,1.8606172800064087,-1.4473354816436768,0.7588641047477722,0.26610422134399414,0.6232787370681763,-3.925891160964966,1.9685801267623901,1.2082085609436035,-0.19132651388645172,-0.6070234179496765,1.2946878671646118},
    		{0.5204276442527771,0.8879683017730713,-0.12867319583892822,1.16953706741333,0.927108883857727,-0.6158349514007568,-0.5866963863372803,0.588530957698822,0.6293437480926514,-1.5084435939788818,-3.5387399196624756,4.297619819641113,-0.1834511011838913,-0.21414519846439362,-1.1485612392425537,-0.3201552927494049},
    		{0.12106652557849884,0.7316846251487732,-0.09910739213228226,2.469839572906494,1.1591219902038574,-1.6517651081085205,0.3968096971511841,-1.2675855159759521,-1.2269363403320312,-2.111189126968384,-4.222823143005371,3.838517427444458,0.9953210949897766,-0.1970827281475067,-2.4965312480926514,0.5354208946228027},
    		{1.433566927909851,-0.763561487197876,-0.020080789923667908,1.629936695098877,1.3897846937179565,-0.18412195146083832,-0.27034756541252136,1.332174301147461,1.4441022872924805,1.074876308441162,-6.836995601654053,1.7375479936599731,-0.3665977716445923,-0.2140052616596222,0.12686139345169067,1.1487923860549927},
    		{0.6942064762115479,5.572775363922119,0.06428514420986176,-0.9604266881942749,3.348867893218994,-1.5344336032867432,-0.0808965340256691,-0.8913619518280029,-3.295994997024536,-0.2881988286972046,-9.736469268798828,1.7221500873565674,-0.1163020059466362,-0.11790856719017029,-2.5960731506347656,-2.3285973072052},
    		{-3.281331777572632,2.5605671405792236,0.16350045800209045,-5.788480281829834,-2.5410830974578857,-5.629981517791748,-0.15210002660751343,-0.44534894824028015,-1.7873891592025757,2.044269323348999,-7.506931304931641,3.3870973587036133,-6.247998237609863,-0.20843464136123657,-7.054993629455566,-2.896841287612915},
    		{-3.5260472297668457,-4.048142910003662,0.22525717318058014,-1.6768158674240112,-4.67326021194458,-3.111752986907959,6.321341037750244,7.9162139892578125,2.2172365188598633,-0.1974300891160965,-5.738227844238281,-0.24405112862586975,-4.3395586013793945,-0.09664248675107956,-3.8858802318573,-5.270615577697754},
    		{-6.2246479988098145,-2.1609373092651367,0.079646036028862,-1.5661391019821167,6.702292442321777,-0.48113641142845154,-0.9273280501365662,4.609508037567139,0.22954989969730377,4.671146869659424,-5.23349142074585,3.535799503326416,0.533752977848053,0.04593907296657562,1.3588837385177612,-0.7846973538398743},
    		{-3.09818172454834,-1.4342502355575562,-0.06247156113386154,-0.716097354888916,5.811021327972412,-0.07541429996490479,-0.32540738582611084,4.244232177734375,0.20874525606632233,1.2328999042510986,0.015762217342853546,4.2739176750183105,-1.054911494255066,-0.00537419319152832,-0.6704913973808289,-0.7841958999633789},
    		{0.07393313944339752,3.055595874786377,-0.040095556527376175,-0.009895714931190014,0.0176064595580101,-0.005035340785980225,-0.07170970737934113,-0.04683949425816536,0.04374624788761139,-0.21975789964199066,0.025622166693210602,4.5612454414367676e-05,-0.4299188554286957,0.06547410786151886,-0.08528711646795273,5.812366485595703},
    		{0.07068628072738647,2.0491671562194824,0.04566951096057892,-0.204322949051857,-0.07120021432638168,-0.7343847751617432,-0.8001810312271118,-1.7378004789352417,-0.6993368864059448,-4.088806629180908,0.06516134738922119,-0.8111763596534729,1.5994691848754883,-0.029284588992595673,-2.307746171951294,-0.34930941462516785},
    		{0.7605672478675842,0.1811782270669937,-0.0017664507031440735,3.7174763679504395,-6.815441608428955,-7.840571403503418,-2.598332405090332,0.14936071634292603,6.126933574676514,2.0944881439208984,1.3777395486831665,0.12114032357931137,0.41743218898773193,0.04964494705200195,-2.3409314155578613,0.873378336429596},
    		{1.4897297620773315,4.018979549407959,0.013379782438278198,2.496305465698242,-2.747077226638794,-5.304062366485596,-4.558678150177002,-3.9622035026550293,2.9106647968292236,2.227724075317383,1.6496025323867798,-2.2338221073150635,-0.13715937733650208,0.07585559785366058,-2.4855668544769287,0.4454983174800873},
    		{1.9202156066894531,1.7159961462020874,-0.15647752583026886,1.418221354484558,-2.9495558738708496,-0.2704316973686218,-0.20315596461296082,-0.43424707651138306,4.562164783477783,0.12592384219169617,-2.059511423110962,-2.370534896850586,2.0997769832611084,-0.06843049824237823,-3.032052755355835,2.366468906402588},
    		{1.5631380081176758,-2.2904651165008545,-0.22650256752967834,3.0705981254577637,-2.04233717918396,-1.949526071548462,-0.7791255712509155,-1.5727823972702026,-0.17630785703659058,-2.852921724319458,-0.7927679419517517,-1.5198622941970825,4.0434651374816895,0.19718167185783386,-3.9651968479156494,-0.19521363079547882},
    		{-4.20932674407959,2.8325448036193848,-0.15949909389019012,-0.7682941555976868,-0.5461181402206421,-4.062605381011963,0.4460223913192749,1.1348267793655396,2.5389275550842285,-0.21184603869915009,-3.367244005203247,0.8301905393600464,0.635471522808075,-0.2587323486804962,-3.171386480331421,2.174690008163452},
    		{-1.2804301977157593,2.3230912685394287,-0.23594807088375092,-1.384891390800476,0.9559871554374695,0.9221534729003906,1.1485179662704468,2.1881136894226074,1.8513729572296143,-0.5220983624458313,-1.5916523933410645,-1.463613510131836,-0.18799938261508942,-0.22358904778957367,-2.4422554969787598,2.6453452110290527},
    		{-0.24505896866321564,0.16723987460136414,-0.24605928361415863,0.13653704524040222,1.8070876598358154,-1.5609735250473022,-0.23165294528007507,1.9231847524642944,-1.1365209817886353,0.18091286718845367,-0.4306148886680603,-2.0371503829956055,1.135495662689209,0.02757851593196392,-4.487886905670166,-0.013716340996325016},
    		{-0.6652954816818237,3.6847341060638428,-0.19238971173763275,1.349327802658081,0.7816745042800903,2.05165696144104,0.8091610670089722,-0.07865805178880692,1.055464744567871,2.3760550022125244,-1.457284927368164,-1.8505661487579346,1.6797327995300293,-0.3534509241580963,-5.9375762939453125,0.8701059222221375},
    		{2.222435235977173,-0.6222023963928223,-0.12353097647428513,-0.2762821316719055,-0.1793719232082367,-0.4311380684375763,-1.4012457132339478,1.3790940046310425,-2.2074296474456787,0.35675567388534546,-1.2833054065704346,0.04016499221324921,0.6243496537208557,-0.19456537067890167,-2.308377742767334,2.1373658180236816},
    		{-1.3235026597976685,1.572348952293396,-0.12507741153240204,1.7369232177734375,1.8128831386566162,1.4461344480514526,-1.6690382957458496,0.6892085671424866,-3.7195656299591064,-0.8249169588088989,0.09582154452800751,-0.08600479364395142,1.3259267807006836,-0.18693140149116516,-1.133813500404358,0.8295272588729858},
    		{0.18894127011299133,2.5757551193237305,-0.11624085903167725,1.8257310390472412,-0.9630547165870667,2.6655080318450928,-2.6814451217651367,-0.47860729694366455,-2.382211208343506,-0.10684771090745926,-0.2195061594247818,0.8731810450553894,1.8254951238632202,-0.29654568433761597,-1.6072574853897095,1.5767141580581665},
    		{2.4557573795318604,-2.434023380279541,-0.12155167013406754,-2.0911126136779785,-3.1296651363372803,0.8437539339065552,0.8430139422416687,-1.566175937652588,-1.4154982566833496,-0.5618821382522583,-3.046557903289795,1.3801401853561401,-0.0008512698113918304,-0.2596500515937805,0.2568744421005249,-0.8138461112976074},
    		{0.10765159130096436,-0.7238919734954834,-0.14378124475479126,-13.678934097290039,-4.127866268157959,2.7169320583343506,-1.7614779472351074,-3.3361291885375977,0.11474248766899109,-0.12618787586688995,-0.6969091892242432,0.655589759349823,2.584718704223633,-0.2901972234249115,-0.2431584596633911,0.7683649659156799},
    		{-0.7083633542060852,0.027314573526382446,-0.13565565645694733,-2.936469554901123,-6.644997596740723,2.567758798599243,-0.08311112970113754,-3.5749943256378174,0.7712281346321106,-0.15601935982704163,-1.9650112390518188,0.04143131896853447,2.1919002532958984,-0.2388180047273636,1.1631748676300049,0.5531272888183594},
    		{0.31031563878059387,1.193600058555603,-0.2541905343532562,4.74581241607666,-7.860174179077148,0.2948436737060547,-1.2675635814666748,-0.6503795981407166,-0.48447683453559875,0.12192084640264511,-3.4141407012939453,1.8229373693466187,-0.034136250615119934,-0.23606610298156738,0.5256242752075195,-0.18735691905021667},
    		{1.0061200857162476,2.9844210147857666,-0.25943636894226074,1.5921529531478882,-7.4821553230285645,-0.005225379951298237,-1.6263943910598755,-0.7340845465660095,-0.8576251864433289,-0.4183999001979828,-3.6903038024902344,4.5831146240234375,0.8548792600631714,-0.19368034601211548,-1.1404860019683838,0.9571580290794373},
    		{0.6719295382499695,1.1536787748336792,-0.06824688613414764,0.8081569075584412,-6.128769874572754,2.725792169570923,0.4996339976787567,-1.3159964084625244,-0.9720485806465149,-1.7497271299362183,-4.9731316566467285,4.370545387268066,-0.7006005644798279,-0.11223646253347397,-1.0122735500335693,-1.2704870700836182},
    		{0.6392229795455933,-0.6570194363594055,-0.08573827892541885,0.20222517848014832,-4.820542335510254,3.562497615814209,0.08455932885408401,0.019902532920241356,0.1350765824317932,-0.8295678496360779,-3.105151891708374,1.1207600831985474,0.0732705295085907,-0.10179341584444046,-3.5506505966186523,0.16738535463809967},
    		{0.1528807431459427,2.5831027030944824,-0.11084230989217758,2.3403093814849854,-3.2036683559417725,-0.40600115060806274,-0.21235445141792297,1.0586636066436768,0.2452547699213028,0.4172002971172333,-2.7948007583618164,0.369476854801178,-0.08161017298698425,-0.2462133914232254,-4.27269172668457,-0.5045909285545349},
    		{-1.2682968378067017,3.1780107021331787,-0.01738906465470791,1.2134647369384766,-3.3640501499176025,-0.7139871120452881,-0.10739975422620773,-1.648341417312622,-3.356423854827881,-0.35432761907577515,-1.010789155960083,2.2669785022735596,-0.12647724151611328,-0.10407250374555588,-0.3129384219646454,-2.7451047897338867},
    		{-0.03777260333299637,-0.14947356283664703,0.024555817246437073,0.9120880365371704,-1.409319519996643,2.1778793334960938,-1.2714287042617798,-0.037254028022289276,0.12603488564491272,-1.4650083780288696,-1.422279715538025,2.462735176086426,0.20254488289356232,-0.12899251282215118,0.8466675281524658,1.6244806051254272},
    		{0.07363953441381454,1.202781081199646,0.11185946315526962,-2.698579788208008,-3.322878360748291,-2.627340078353882,0.2995756268501282,0.6364974975585938,1.8677377700805664,1.5479655265808105,-1.592889666557312,0.6712300777435303,2.605712413787842,-0.24098719656467438,-2.293325662612915,-1.8383402824401855},
    		{0.15500293672084808,0.6140708327293396,0.17229929566383362,-0.3165764808654785,-2.684253692626953,-6.63890266418457,-3.672362804412842,-0.3562597632408142,-2.8077445030212402,1.216893196105957,-6.6688761711120605,6.223577976226807,-4.352355480194092,-0.2158212512731552,-5.588327884674072,-2.684596300125122},
    		{-3.5566768646240234,-2.017868757247925,0.22639310359954834,1.2990740537643433,-2.3432488441467285,-4.034677028656006,-3.792433977127075,0.9201858639717102,1.3748167753219604,6.263273239135742,-4.804501056671143,6.250528812408447,-2.5772390365600586,-0.15639720857143402,-3.4984536170959473,-1.6861437559127808},
    		{-6.169557571411133,-1.559609055519104,-0.035684410482645035,-1.3293225765228271,1.346929907798767,-2.840426445007324,1.0193952322006226,1.1564857959747314,-0.2771504819393158,9.797574043273926,-5.1785383224487305,-2.6583964824676514,-1.544785976409912,0.07739962637424469,2.2992777824401855,1.5352839231491089},
    		{-0.41342711448669434,-1.4820061922073364,0.07360583543777466,-0.3705129027366638,2.3331081867218018,-0.07554355263710022,-0.8965306282043457,-4.940005779266357,-0.04341644048690796,-4.893793106079102,8.589404106140137,-3.5292699337005615,-0.9699066877365112,-0.08156651258468628,4.391825199127197,4.417196273803711},
    		{0.0689670741558075,2.762950897216797,0.06372633576393127,-0.008897851221263409,-0.02619268372654915,-0.008349664509296417,-0.09449372440576553,-0.04501710832118988,0.0592830628156662,-0.4471025764942169,-0.012627959251403809,-0.022434793412685394,0.15938356518745422,0.01141996681690216,-0.05789761245250702,5.625569820404053},
    		{0.06459619104862213,2.05430269241333,0.08424730598926544,2.9062633514404297,-1.4633272886276245,-0.840156614780426,-0.7666473388671875,-1.3644670248031616,-0.6405010223388672,-7.267399787902832,-0.04207760840654373,-0.06084334850311279,4.908620834350586,-0.007062263786792755,1.7261624336242676,-0.04090495780110359},
    		{0.2035071849822998,2.845703601837158,-0.007720984518527985,-1.9383567571640015,-2.8117904663085938,-4.9712138175964355,-5.22944450378418,-0.4019277095794678,6.861044406890869,-0.17955075204372406,3.948171377182007,-1.1592402458190918,1.0567559003829956,0.04696965217590332,-2.2952911853790283,-2.3573923110961914},
    		{-2.4773311614990234,2.660640001296997,-0.08350986987352371,3.9955286979675293,-5.293645858764648,-4.546367645263672,-1.7527332305908203,-5.208451271057129,6.057005405426025,2.2863731384277344,0.14714767038822174,-2.0579025745391846,-0.6049835085868835,0.05134187638759613,-2.7443995475769043,0.33940407633781433},
    		{1.0432361364364624,1.6592671871185303,-0.23557482659816742,2.0497443675994873,-2.0771501064300537,-1.9772865772247314,2.335228443145752,-2.3140454292297363,0.7798473834991455,-2.945808172225952,-5.2061944007873535,-3.071063280105591,-4.536347389221191,-0.06871049851179123,-1.8082751035690308,-1.092004418373108},
    		{4.029787540435791,0.6592414975166321,-0.19536150991916656,2.199143886566162,-1.3385193347930908,0.06885185837745667,-4.231985092163086,-1.73081636428833,0.5396425724029541,0.590599536895752,-0.7639369368553162,-3.550445795059204,4.594167232513428,0.18729855120182037,-2.6168618202209473,0.3286851644515991},
    		{-2.3565192222595215,3.1079373359680176,-0.22174899280071259,-2.364942789077759,-0.5147932171821594,-5.543216705322266,-2.8558335304260254,-1.4097338914871216,2.5692124366760254,3.7562341690063477,-2.324117660522461,-0.4322993755340576,0.659538984298706,-0.20615066587924957,-9.343961715698242,1.3249760866165161},
    		{0.20874200761318207,-0.3470878303050995,-0.1867252141237259,-0.9071984887123108,1.0136247873306274,-3.7943503856658936,-0.5450259447097778,-0.9989491105079651,-2.107384204864502,1.6205949783325195,-1.4589769840240479,2.100559711456299,0.39319926500320435,0.008703632280230522,-5.897569179534912,-1.4296863079071045},
    		{-0.9836856126785278,-0.4861863851547241,-0.23984061181545258,-1.59233558177948,1.3958059549331665,-5.034858703613281,0.933912456035614,0.3790108263492584,-3.51921010017395,1.02261221408844,-1.0630106925964355,-3.3443214893341064,1.1844680309295654,-0.0641423761844635,-3.293180227279663,-0.045016735792160034},
    		{-0.005421053618192673,5.116814613342285,-0.2515352666378021,-0.35798180103302,3.137345552444458,-4.379613399505615,1.252902626991272,2.377026319503784,-5.504284858703613,0.8545435070991516,-3.3429033756256104,-2.6598644256591797,0.17505870759487152,-0.35020706057548523,-3.907245397567749,1.969610571861267},
    		{-0.6494712829589844,3.7488796710968018,-0.12907183170318604,-0.737525463104248,-0.29144981503486633,-5.150278568267822,0.17098867893218994,2.625767469406128,-5.137870788574219,0.7952801585197449,-0.5470991134643555,0.5261156558990479,0.008504388853907585,-0.20117700099945068,1.4365007877349854,0.038111116737127304},
    		{-0.07807503640651703,4.643671035766602,-0.2302137166261673,2.633509874343872,0.397695928812027,-4.070498943328857,-2.3333375453948975,2.2529892921447754,-3.6347241401672363,1.6090034246444702,0.22776320576667786,-0.7394605875015259,-1.418120265007019,-0.160455122590065,0.8237994313240051,0.17130184173583984},
    		{0.2794296145439148,2.4753599166870117,0.07810893654823303,2.148463249206543,1.4744055271148682,-4.003755569458008,-0.6675896048545837,2.1676807403564453,-3.982879638671875,1.0331778526306152,-2.440089225769043,1.0433534383773804,-1.5722107887268066,-0.16138136386871338,-0.5408274531364441,1.8076205253601074},
    		{-1.1692414283752441,3.570418119430542,-0.2263995260000229,-7.215479850769043,-0.8009278178215027,-5.254920482635498,-2.6538445949554443,-1.5585298538208008,-1.0373759269714355,-2.136636734008789,-1.6167055368423462,0.4744185209274292,-2.951000690460205,-0.1778925061225891,-0.8808131814002991,-0.21472744643688202},
    		{-2.1027116775512695,0.3021140992641449,-0.09364112466573715,-13.854554176330566,-4.879775524139404,-1.975607991218567,-3.1183745861053467,-5.044590950012207,-1.748124599456787,-2.3225886821746826,-3.300394296646118,-0.2331484705209732,-3.9747517108917236,-0.3179319202899933,1.7267836332321167,-0.8437308073043823},
    		{-0.018734555691480637,-1.333052396774292,-0.117533378303051,-1.1674185991287231,-3.225996732711792,-3.358715057373047,0.047096554189920425,-5.533169269561768,-1.0745034217834473,-4.990870952606201,-2.102360486984253,-0.9267898797988892,0.058076441287994385,-0.2686641216278076,4.655846118927002,-3.351830005645752},
    		{1.8645849227905273,2.1296629905700684,-0.1727430671453476,1.4806933403015137,-6.131931304931641,-1.0444146394729614,-3.177778720855713,-2.525106191635132,0.19041325151920319,-1.0348012447357178,-2.172908067703247,-0.9149473309516907,1.0837299823760986,-0.1375371515750885,0.7681180834770203,-0.48907890915870667},
    		{2.9638941287994385,2.828345775604248,-0.036094095557928085,2.6248691082000732,-8.895496368408203,-0.3122332692146301,-0.10287320613861084,-0.8129005432128906,-0.30133751034736633,-1.1781971454620361,-3.0394084453582764,0.2460554987192154,0.029440011829137802,-0.13079006969928741,0.06059645116329193,-1.2647168636322021},
    		{3.284541606903076,-0.13453409075737,-0.1545213907957077,0.46367546916007996,-15.329926490783691,0.08201909810304642,0.8207027316093445,-2.59519100189209,-2.322270631790161,1.4033807516098022,-1.29053795337677,0.511135458946228,-0.7029746174812317,-0.11891323328018188,-0.7700638175010681,0.4627216160297394},
    		{-1.3403228521347046,1.3889878988265991,-0.05106952786445618,1.512711763381958,-18.79784393310547,0.17705824971199036,-0.4082788825035095,-0.8503408432006836,-0.6157391667366028,-0.006501420401036739,-3.352421283721924,1.9936842918395996,0.6362794041633606,-0.2233019322156906,-0.44736748933792114,-0.0727328211069107},
    		{1.6596083641052246,1.3495292663574219,-0.05091886967420578,-2.123223304748535,-14.4952974319458,1.3597196340560913,-1.5262823104858398,-0.1434776335954666,1.3519480228424072,2.0734667778015137,-1.803197979927063,1.9945752620697021,0.25845253467559814,-0.24703305959701538,-4.3693132400512695,0.3449069857597351},
    		{1.9294968843460083,3.4744396209716797,-0.16871213912963867,-1.499592900276184,-11.475354194641113,0.6036313772201538,-1.986796259880066,-1.7179503440856934,-0.20572073757648468,1.4843870401382446,-0.14749306440353394,3.060983419418335,-1.9278147220611572,0.1850578337907791,0.1206769198179245,-3.04714035987854},
